tree
version=v2
num_class=1
num_tree_per_iteration=1
label_index=0
max_feature_idx=567
objective=regression
feature_names=age sex active_date limit loanSum loanMean loanMad loanMedian loanMin loanMax loan_balance loanSum_a loanMean_a loanMad_a loanMedian_a loanMin_a loanMax_a fenSum_a fenMad_a fenMin_a fenMax_a fenSum fenMean fenMad fenMin fenMax plannum_1 plannum_12 plannum_3 plannum_6 remain_limit pid_param101 pid_param1010 pid_param1011 pid_param1012 pid_param1013 pid_param1014 pid_param1015 pid_param1016 pid_param1017 pid_param1018 pid_param1019 pid_param102 pid_param1020 pid_param1021 pid_param1022 pid_param1023 pid_param1024 pid_param1025 pid_param1026 pid_param1027 pid_param1028 pid_param1029 pid_param103 pid_param1030 pid_param1031 pid_param1032 pid_param1033 pid_param1034 pid_param1035 pid_param1036 pid_param1037 pid_param1038 pid_param1039 pid_param104 pid_param1040 pid_param1041 pid_param1042 pid_param1043 pid_param1044 pid_param1045 pid_param1046 pid_param1047 pid_param1048 pid_param105 pid_param106 pid_param107 pid_param108 pid_param109 pid_param11 pid_param110 pid_param111 pid_param112 pid_param113 pid_param114 pid_param115 pid_param116 pid_param117 pid_param118 pid_param119 pid_param12 pid_param120 pid_param121 pid_param122 pid_param123 pid_param124 pid_param125 pid_param126 pid_param127 pid_param128 pid_param129 pid_param13 pid_param130 pid_param131 pid_param132 pid_param133 pid_param134 pid_param135 pid_param136 pid_param137 pid_param138 pid_param139 pid_param14 pid_param140 pid_param141 pid_param142 pid_param143 pid_param144 pid_param145 pid_param146 pid_param147 pid_param148 pid_param15 pid_param16 pid_param17 pid_param18 pid_param19 pid_param21 pid_param210 pid_param211 pid_param212 pid_param213 pid_param214 pid_param215 pid_param216 pid_param217 pid_param218 pid_param219 pid_param22 pid_param220 pid_param221 pid_param222 pid_param223 pid_param224 pid_param225 pid_param226 pid_param227 pid_param228 pid_param229 pid_param23 pid_param230 pid_param231 pid_param232 pid_param233 pid_param234 pid_param235 pid_param236 pid_param237 pid_param238 pid_param239 pid_param24 pid_param240 pid_param241 pid_param242 pid_param243 pid_param244 pid_param245 pid_param246 pid_param247 pid_param248 pid_param25 pid_param26 pid_param27 pid_param28 pid_param29 pid_param31 pid_param310 pid_param311 pid_param312 pid_param313 pid_param314 pid_param315 pid_param316 pid_param317 pid_param318 pid_param319 pid_param32 pid_param320 pid_param321 pid_param322 pid_param323 pid_param324 pid_param325 pid_param326 pid_param327 pid_param328 pid_param329 pid_param33 pid_param330 pid_param331 pid_param332 pid_param333 pid_param334 pid_param335 pid_param336 pid_param337 pid_param338 pid_param339 pid_param34 pid_param340 pid_param341 pid_param342 pid_param343 pid_param344 pid_param345 pid_param346 pid_param347 pid_param348 pid_param35 pid_param36 pid_param37 pid_param38 pid_param39 pid_param41 pid_param410 pid_param411 pid_param412 pid_param413 pid_param414 pid_param415 pid_param416 pid_param417 pid_param418 pid_param419 pid_param42 pid_param420 pid_param421 pid_param422 pid_param423 pid_param424 pid_param425 pid_param426 pid_param427 pid_param428 pid_param429 pid_param43 pid_param430 pid_param431 pid_param432 pid_param433 pid_param434 pid_param435 pid_param436 pid_param437 pid_param438 pid_param439 pid_param44 pid_param440 pid_param441 pid_param442 pid_param443 pid_param444 pid_param445 pid_param446 pid_param447 pid_param448 pid_param45 pid_param46 pid_param47 pid_param48 pid_param49 pid_param51 pid_param510 pid_param511 pid_param512 pid_param513 pid_param514 pid_param515 pid_param516 pid_param517 pid_param518 pid_param519 pid_param52 pid_param520 pid_param521 pid_param522 pid_param523 pid_param524 pid_param525 pid_param526 pid_param527 pid_param528 pid_param529 pid_param53 pid_param530 pid_param531 pid_param532 pid_param533 pid_param534 pid_param535 pid_param536 pid_param537 pid_param538 pid_param539 pid_param54 pid_param540 pid_param541 pid_param542 pid_param543 pid_param544 pid_param545 pid_param546 pid_param547 pid_param548 pid_param55 pid_param56 pid_param57 pid_param58 pid_param59 pid_param61 pid_param610 pid_param611 pid_param612 pid_param613 pid_param614 pid_param615 pid_param616 pid_param617 pid_param618 pid_param619 pid_param62 pid_param620 pid_param621 pid_param622 pid_param623 pid_param624 pid_param625 pid_param626 pid_param627 pid_param628 pid_param629 pid_param63 pid_param630 pid_param631 pid_param632 pid_param633 pid_param634 pid_param635 pid_param636 pid_param637 pid_param638 pid_param639 pid_param64 pid_param640 pid_param641 pid_param642 pid_param643 pid_param644 pid_param645 pid_param646 pid_param647 pid_param648 pid_param65 pid_param66 pid_param67 pid_param68 pid_param69 pid_param71 pid_param710 pid_param711 pid_param712 pid_param713 pid_param714 pid_param715 pid_param716 pid_param717 pid_param718 pid_param719 pid_param72 pid_param720 pid_param721 pid_param722 pid_param723 pid_param724 pid_param725 pid_param726 pid_param727 pid_param728 pid_param729 pid_param73 pid_param730 pid_param731 pid_param732 pid_param733 pid_param734 pid_param735 pid_param736 pid_param737 pid_param738 pid_param739 pid_param74 pid_param740 pid_param741 pid_param742 pid_param743 pid_param744 pid_param745 pid_param746 pid_param747 pid_param748 pid_param75 pid_param76 pid_param77 pid_param78 pid_param79 pid_param81 pid_param810 pid_param811 pid_param812 pid_param813 pid_param814 pid_param815 pid_param816 pid_param817 pid_param818 pid_param819 pid_param82 pid_param820 pid_param821 pid_param822 pid_param823 pid_param824 pid_param825 pid_param826 pid_param827 pid_param828 pid_param829 pid_param83 pid_param830 pid_param831 pid_param832 pid_param833 pid_param834 pid_param835 pid_param836 pid_param837 pid_param838 pid_param839 pid_param84 pid_param840 pid_param841 pid_param842 pid_param843 pid_param844 pid_param845 pid_param846 pid_param847 pid_param848 pid_param85 pid_param86 pid_param87 pid_param88 pid_param89 pid_param91 pid_param910 pid_param911 pid_param912 pid_param913 pid_param914 pid_param915 pid_param916 pid_param917 pid_param918 pid_param919 pid_param92 pid_param920 pid_param921 pid_param922 pid_param923 pid_param924 pid_param925 pid_param926 pid_param927 pid_param928 pid_param929 pid_param93 pid_param930 pid_param931 pid_param932 pid_param933 pid_param934 pid_param935 pid_param936 pid_param937 pid_param938 pid_param939 pid_param94 pid_param940 pid_param941 pid_param942 pid_param943 pid_param944 pid_param945 pid_param946 pid_param947 pid_param948 pid_param95 pid_param96 pid_param97 pid_param98 pid_param99 costSum_a costMad_a costMedian_a costMin_a costMax_a costSum costMad costMedian costMin costMax cate_id_1 cate_id_10 cate_id_11 cate_id_12 cate_id_13 cate_id_14 cate_id_15 cate_id_16 cate_id_17 cate_id_18 cate_id_19 cate_id_2 cate_id_20 cate_id_21 cate_id_22 cate_id_23 cate_id_24 cate_id_25 cate_id_26 cate_id_27 cate_id_28 cate_id_29 cate_id_3 cate_id_30 cate_id_31 cate_id_32 cate_id_33 cate_id_34 cate_id_35 cate_id_36 cate_id_37 cate_id_38 cate_id_39 cate_id_4 cate_id_40 cate_id_41 cate_id_42 cate_id_43 cate_id_44 cate_id_5 cate_id_6 cate_id_7 cate_id_8 cate_id_9 classify_5 classify_6 classify_7
feature_infos=[20:50] [1:2] [20151202:20160630] [5.2921539288000004:6.2920545271000003] [0:8.5005240025624751] [0:7.5840624550999998] [0:6.5840748816472665] [0:7.5840624550999998] [0:7.5840624550999998] [0:7.5840624550999998] [0:8.1171381757213403] [0:7.6973446898699054] [0:7.0147436732000008] [0:6.3818845499826597] [0:7.0147436732000008] [0:7.0147436732000008] [0:7.0147436732000008] [0:7.6761019913759778] [0:6.3818845499826597] [0:7.0147436732000008] [0:7.0147436732000008] [0:8.4763689663241522] [0:7.5840624550999998] [0:6.5643488073433724] [0:7.5840624550999998] [0:7.5840624550999998] [0:136] [0:240] [0:49] [0:37] [0:6.2920545271000003] [0:6] [0:18] none none none [0:9] [0:21] [0:769] [0:75] [0:163] [0:40] [0:8] [0:241] [0:64] [0:76] [0:5] [0:2] [0:4] [0:165] [0:16] [0:854] [0:264] [0:10] [0:678] [0:206] [0:25] [0:127] none none [0:20] [0:12] [0:12] none [0:13] none none none none none none none none none [0:30] [0:16] none [0:13] [0:8] [0:176] [0:27] [0:20] [0:59] [0:72] [0:117] [0:117] [0:104] [0:69] [0:268] [0:898] [0:24] [0:119] [0:13] [0:11] [0:26] [0:39] [0:17] [0:138] [0:67] [0:50] [0:29] [0:11] [0:632] [0:83] [0:106] none [0:501] [0:17] none [0:46] [0:494] [0:499] [0:246] [0:761] none none none [0:556] [0:196] [0:50] [0:22] [0:162] [0:33] [0:30] [0:428] [0:70] [0:246] [0:38] none none none none none none none none none none [0:33] none none none none none none none none none none [0:29] none none none none none none none none none none [0:777] none none none none none none none none none [0:93] [0:1053] [0:71] [0:132] [0:6] [0:63] [0:299] [0:209] [0:177] [0:153] [0:107] none [0:558] none none none [0:27] none none none none none none none none none none [0:5] none none none none none none none none none none [0:26] none none none none none none none none none [0:2] [0:101] [0:107] [0:138] [0:205] [0:429] none none none none none none none none none none [0:63] none none none none none none none none none none [0:6] none none none none none none none none none none none none none none none none none none none none none none none none none [0:50] [0:406] [0:358] [0:60] [0:520] none none none none none none [0:8] none none none none none none none none none none none none none none none none none none none none none [0:74] none none none none none none none none none [0:12] [0:54] [0:8] [0:16] [0:46] [0:756] none none none none none none none none none none none none none none none none none none none none none [0:136] none none none none none none none none none none [0:98] none none none none none none none none none [0:1478] none none none none [0:20] [0:14] [0:49] [0:54] [0:97] [0:25] [0:60] [0:8] none none none [0:201] none none none none none none none none none none [0:229] none none none none none none none none none none [0:236] none none none none none none none none none [0:22] [0:35] [0:59] [0:23] [0:76] [0:645] none none none none none none none none none none [0:521] none none none none none none none none none none [0:204] none none none none none none none none none none [0:31] none none none none none none none none none [0:9] none [0:16] none none [0:552] none none none none none none none none none none [0:475] none none none none none none none none none none [0:472] none none none none none none none none none none [0:75] none none none none none none none none none none none none none none [0:14.850724957582418] [0:12.420048333684544] [0:9.5185953180541834] [0:7.5010951798000001] [0:12.876089022999999] [0:15.085151139283646] [0:12.372229670177937] [0:9.5185953180541834] [0:7.4240843906283356] [0:12.876089022999999] [0:8.3356049495242317] [0:7.7239476611536206] [0:7.9755693235477736] [0:7.7817306694207797] [0:6.3932710075532624] [0:6.7284370119238615] [0:7.7109949867350807] [0:7.7050703629205577] [0:7.7310118997325574] [0:6.724431146901928] [0:9.9815590615094951] [0:9.1764700011000002] [0:5.1387661686774964] [0:9.7922827346410859] [0:10.752567869069066] [0:8.013250041763051] none [0:8.9442744570934156] [0:11.269944792402626] none [0:9.2562229037999995] none [0:8.0803358846876652] none [0:6.0220324148000026] [0:15.085150977518587] [0:8.2220131792619124] [0:5.2258664554304923] [0:8.0507215754447063] [0:9.2478958077575388] none [0:7.7439177310223126] [0:5.2224094030917012] none [0:10.526824928701741] none none [0:5.5669728404614016] [0:7.4212558498211996] [0:4.0705836964496971] [0:7.9977105470749512] [0:9.6672314841462939] none [0:7.9391671949377072] [0.076227429497989704:0.69242387798253158] [0.026049659796184781:0.72780891108812407] [0.0014617614417969001:1]
tree_sizes=2411 2458 2460 2460 2461 2454 2469 2489 2477 2480 2486 2487 2468 2474 2474 2476 2473 2487 2476 2491 2493 2493 2483 2495 2485 2497 2490 2490 2474 2494 2483 2486 2492 2481 2489 2483 2485 2492 2484 2479 2508 2476 2484 2497 2472 2490 2508 2472 2486 2501 2484 2476 2459 2459 2457 2499 2475 2457 2497 2476 2485 2520 2495 2482 2477 2450 2487 2483 2475 2496 2484 2474 2496 2486 2475 2485 2474 2482 2466 2482 2497 2481 2457 2510 2481 2482 2472 2506 2473 2498 2469 2509 2482 2502 2479 2468 2480 2473 2473 2452 2469 2472 2476 2456 2475 2492 2467 2503 2479 2491 2470 2474 2502 2453 2494 2455 2461 2497 2465 2478 2444 2469 2490 2460 2474 2447 2454 2481 2466 2454 2470 2502 2490 2481 2456 2450

Tree=0
num_leaves=30
num_cat=0
split_feature=565 565 565 5 566 30 565 566 566 21 565 566 21 4 21 565 11 11 5 566 566 565 565 566 566 566 4 11 11
split_gain=190414 15850.4 11522.3 2898.83 2752.68 2256.63 1493.86 1457.29 1400.69 1272.47 1113.44 983.221 850.266 838.518 803.236 687.362 701.539 672.458 630.893 616.303 589.223 572.959 422.688 365.155 350.132 313.687 404.667 311.639 307.436
threshold=0.27868905755059231 0.14244365676769469 0.39154865970154079 4.8616016003946783 0.37097675811648712 4.764308067048078 0.17889042212836517 0.21531319346252967 0.096542793668643642 5.4708697891521831 0.2215427036813799 0.25565796911152977 4.957345311304306 6.5522053834089995 5.2921539287779282 0.49305848184826112 5.9746772896195388 5.2921539287952681 4.7533170691161475 0.14508109153412937 0.12906025980686303 0.083574818846239726 0.32517147825225268 0.17587009352639923 0.18246394231553562 0.19035770035656871 6.0879531388873973 1.0000000180025095e-35 6.1534138562978553
decision_type=2 2 2 2 2 2 2 2 2 2 2 2 2 2 2 2 2 2 2 2 2 2 2 2 2 2 2 2 2
left_child=1 5 9 6 15 8 20 10 21 17 -5 13 -12 22 -9 16 -4 25 -7 -8 27 -1 -11 -10 -19 26 -2 -3 -13
right_child=2 3 4 7 -6 18 19 14 23 11 12 28 -14 -15 -16 -17 -18 24 -20 -21 -22 -23 -24 -25 -26 -27 -28 -29 -30
leaf_value=1.1435600664508367 1.3517679334018795 1.1978451535680783 1.3691602198799642 1.1796566808091145 1.435494209137508 1.2057061195260264 1.2657963994969863 1.4191002770343686 1.2211286157488761 1.2480533001650926 1.2552352016599999 1.3963134299170261 1.1967907092653489 1.1951530902876821 1.2427575978035503 1.3886557395507733 1.3054578801955623 1.2847278409526783 1.1605408859863748 1.4163373939575541 1.3654847342249776 1.1535942352675166 1.2985979360074011 1.3693292368035062 1.3847657762758434 1.4232274367081623 1.2796197203879776 1.2367064345540879 1.2952865518005914
leaf_count=24481 1080 1580 2118 6255 2719 2403 2364 102 431 759 981 185 1702 402 176 4190 543 984 1140 70 63 33964 909 46 96 120 237 766 127
internal_value=0 -0.629021 3.32678 0.330296 3.96526 -0.844935 0.956691 0.00112613 -0.891543 2.07954 -0.0690039 1.55565 0.469906 1.30622 2.25588 3.62739 3.22993 2.57533 -0.0698218 1.50922 0.398427 -0.905472 1.61867 0.815114 1.97911 3.02343 2.8824 0.317382 3.21051
internal_count=90993 76524 14469 14059 9570 62465 4843 9216 58922 4899 8938 2382 2683 2070 278 6851 2661 2517 3543 2434 2409 58445 1668 477 1080 1437 1317 2346 312
shrinkage=1


Tree=1
num_leaves=30
num_cat=0
split_feature=565 565 565 5 30 566 565 566 565 565 4 566 21 17 8 566 21 566 565 20 566 4 566 16 566 21 566 566 21
split_gain=171927 16040.4 8621.46 2878.82 2155.42 1906.11 1502.12 1453.74 1301.39 1206.86 997.604 895.321 798.403 770.169 698.818 691.443 708.267 682.016 535.256 500.971 465.663 653.981 464.447 416.4 396.81 378.114 360.044 358.607 352.647
threshold=0.2906602009828953 0.14733691598076323 0.43259387289346246 4.8362478204771628 4.723016822140921 0.3870302549664284 0.23786761405321841 0.096542793668643642 0.35028600471013244 0.20473239213127972 6.0879531389233366 0.25565796911152977 5.292153928785015 5.1535381046590976 4.5229543387500017 0.21531319346252967 5.4471252449865082 0.12558889293876296 0.081705944281258769 5.0720680073444298 0.24482171358774135 6.4053331376000839 0.26771719786701936 5.674324095350002 0.13685046677661758 6.2752613496052749 0.14508109153412937 0.14508109153412937 5.1535381046669704
decision_type=2 2 2 2 2 2 2 2 2 2 2 2 2 2 2 2 2 2 2 2 2 2 2 2 2 2 2 2 2
left_child=1 4 8 9 7 23 15 18 10 17 19 -12 26 20 -6 28 -17 -3 -1 -2 21 -10 -14 -4 -9 -24 -8 -11 -5
right_child=2 3 5 6 14 -7 12 24 13 27 11 -13 22 -15 -16 16 -18 -19 -20 -21 -22 -23 25 -25 -26 -27 -28 -29 -30
leaf_value=-0.04896835114211448 0.13006110911903351 0.029065924376634734 0.18808404273237814 -0.0034258529690085917 0.013881310265965258 0.23108293943431846 0.060625901455260915 0.014872820978114348 0.16127116245084577 0.083628924214464481 0.03866163970164533 0.15424430585985807 0.00392019408089774 0.095362116869573382 -0.027913392077368027 0.19859580920066364 -0.0092345463224204182 0.16190548604726793 -0.039148454380524576 0.052701387296159911 0.21429895899125509 0.087432728128729709 0.22811188489891762 0.15938219428702316 0.11389835083830185 -0.016417877674102781 0.16549619670664328 0.22532496439374011 -0.028938884615452611
leaf_count=22479 1259 2861 3928 4892 2273 2501 1018 379 1344 1524 1060 199 1211 759 1786 81 83 100 36262 251 280 386 43 1863 138 25 89 46 1873
internal_value=0 -0.581935 3.24685 0.393057 -0.795144 3.89209 0.0750403 -0.843432 2.28072 1.04685 1.79596 1.13862 0.759363 2.76548 -0.0901754 -0.160606 1.86827 0.671045 -0.858127 2.34404 3.08956 2.89592 0.2212 3.57701 0.826103 2.76422 1.38114 1.75561 -0.209791
internal_count=90993 77163 13830 13846 63317 8292 9315 59258 5538 4531 2769 1259 2386 2769 4059 6929 164 2961 58741 1510 2010 1730 1279 5791 517 68 1107 1570 6765
shrinkage=0.05


Tree=2
num_leaves=30
num_cat=0
split_feature=565 565 565 5 30 566 566 566 565 565 565 21 4 566 17 8 566 565 21 20 566 4 566 566 16 5 4 4 566
split_gain=155164 14476.5 7780.87 2626.5 1945.27 1720.27 1318.45 1310.01 1174.5 1143.24 1038.81 900.467 900.338 808.027 695.078 630.684 626.281 490.391 473.066 452.126 420.261 593.168 411.708 379.879 375.801 366.192 298.99 294.073 281.84
threshold=0.2906602009828953 0.14733691598076323 0.43259387289346246 5.0149300433251982 4.723016822140921 0.3870302549664284 0.091724515882304417 0.25565796911152977 0.35028600471013244 0.20245265493643347 0.2215427036813799 4.9748429458697414 6.0879531389233366 0.25565796911152977 5.1535381046590976 4.5229543387500017 0.12558889293876296 0.095714670486009984 6.2511824414683801 5.0720680073444298 0.24482171358774135 6.3398712696620931 0.13685046677661758 0.11981203808306336 5.674324095350002 4.7230168221290914 6.5186124384086872 4.3222322552925503 0.14508109153412937
decision_type=2 2 2 2 2 2 2 2 2 2 2 2 2 2 2 2 2 2 2 2 2 2 2 2 2 2 2 2 2
left_child=1 4 8 9 6 24 17 10 12 16 -5 23 19 26 20 27 -3 -1 -9 -2 21 -10 -8 -12 -4 28 -14 -6 -11
right_child=2 3 5 7 15 -7 22 18 14 25 11 -13 13 -15 -16 -17 -18 -19 -20 -21 -22 -23 -24 -25 -26 -27 -28 -29 -30
leaf_value=-0.043634358540300316 0.12355805625983701 0.023954523011100737 0.1786798371377642 -0.015487893872334128 -0.0031404302791837322 0.21952879372142592 0.010476875559585852 0.17459642661028896 0.15502020785801091 0.085360199585280017 0.051120755638892262 0.0011029558357466543 0.054230060564487648 0.14653209402932596 0.090594012259808773 -0.026517720608935515 0.14971846721920312 -0.03336309148663421 -0.010977674325307211 0.050066318288742306 0.20358401336840221 0.088473170588720215 0.10820343369159147 0.17098035778797849 0.15141308169114098 0.045054459631357999 -0.0035630672520194843 0.032996675723251372 0.21539842112119809
leaf_count=42656 1259 3356 3928 5220 1246 2501 492 145 1276 1345 959 1859 739 199 759 1786 102 15972 45 251 280 454 138 71 1863 701 321 1027 43
internal_value=0 -0.552839 3.0845 0.373404 -0.755387 3.69749 -0.801261 0.0173286 2.16669 0.906138 -0.0434875 0.437624 1.70616 1.08169 2.62721 -0.0856666 0.553283 -0.816723 2.61289 2.22684 2.93509 2.75113 0.637673 1.18766 3.39816 1.49023 0.734571 0.263745 1.78778
internal_count=90993 77163 13830 13846 63317 8292 59258 8299 5538 5547 8109 2889 2769 1259 2769 4059 3458 58628 190 1510 2010 1730 630 1030 5791 2089 1060 2273 1388
shrinkage=0.05


Tree=3
num_leaves=30
num_cat=0
split_feature=565 565 565 5 566 30 566 565 21 566 566 565 21 4 21 566 20 565 5 565 565 566 10 566 17 14 566 11 21
split_gain=140135 11632.9 8506.7 2203.32 2033.35 1660.57 1147.65 1125.36 1062.81 1031.99 898.603 779.6 737.935 729.217 653.075 575.413 569.913 495.211 482.928 446.61 444.072 412.294 422.892 370.754 354.108 301.598 292.305 281.637 277.946
threshold=0.27868905755059231 0.14244365676769469 0.39154865970154079 5.0149300433251982 0.37097675811648712 4.764308067048078 0.21531319346252967 0.17412590003884443 5.1535381046956212 0.096542793668643642 0.32272870446824814 0.21142753269291828 5.2381020152308855 6.535635911808602 5.2921539287779282 0.15913245100364015 6.0108671660500006 0.34512717719028557 4.7533170691161475 0.49305848184826112 0.083574818846239726 0.14090301338232183 5.8857701085603251 0.12906025980686303 5.2381020151719406 4.9748429458008543 0.17587009352639923 1.0000000180025095e-35 6.0993534722386462
decision_type=2 2 2 2 2 2 2 2 2 2 2 2 2 2 2 2 2 2 2 2 2 2 2 2 2 2 2 2 2
left_child=1 5 8 7 16 9 11 23 21 20 13 -5 -13 17 -8 -9 19 25 -7 24 -1 22 -2 27 -4 -10 -11 -3 -26
right_child=2 3 4 6 -6 18 14 15 10 26 -12 12 -14 -15 -16 -17 -18 -19 -20 -21 -22 -23 -24 -25 28 -27 -28 -29 -30
leaf_value=-0.043960052751052477 0.13267176543051998 -0.002266094608570838 0.15279142436948559 -0.017929114353673347 0.20671246060995374 0.0097304982837418258 0.1999067808389664 0.05378550431307625 0.078426002928697225 0.022230376389629602 0.16867776930594761 0.039450981752034604 -0.010735119056406913 0.015377787208964683 0.03956295005206404 0.20181810633460087 0.077170024359864864 0.1070746293776816 -0.029785016722846447 0.16853552814582196 -0.03512627315835725 0.19443530497903175 0.075546403323702049 0.13624173170429166 0.12929679232615013 0.03361197669094744 0.15482613781224128 0.034042215498763094 0.054692060997088759
leaf_count=24481 960 1662 1899 5033 2719 2403 100 3247 938 431 227 1474 1456 585 174 67 224 898 1140 4074 33964 176 489 59 486 626 46 787 168
internal_value=0 -0.539621 2.85396 0.282217 3.40257 -0.724593 -0.0506063 0.753097 1.78229 -0.764574 1.45415 -0.119846 0.290242 1.31115 1.96165 1.13557 3.11218 1.54962 -0.0596812 3.16521 -0.77653 2.44342 2.26787 0.247713 2.83727 1.20978 0.700348 0.188036 2.20265
internal_count=90993 76524 14469 14059 9570 62465 8237 5822 4899 58922 3274 7963 2930 3047 274 3314 6851 2462 3543 6627 58445 1625 1449 2508 2553 1564 477 2449 654
shrinkage=0.05


Tree=4
num_leaves=30
num_cat=0
split_feature=565 565 565 5 566 30 565 21 566 566 566 4 566 9 565 21 21 20 566 566 565 17 565 565 11 17 21 21 565
split_gain=126586 9522.87 9009.29 1949.51 1835.1 1188.85 1175.02 1161.44 897.001 861.75 745.177 749.222 699.456 754.633 625.982 729.409 607.47 514.347 482.245 462.701 405.289 436.185 394.684 342.575 333.774 319.233 305.468 296.878 267.705
threshold=0.26360022970844438 0.39154865970154079 0.13206241717428327 4.9598753449958908 0.37097675811648712 4.7727262671296007 0.17412590003884443 5.5440421497950689 0.21531319346252967 0.08614053273434788 0.19035770035656871 5.8857701085518253 0.25565796911152977 5.9767413958000022 0.20039165542103782 5.0705925701946422 5.2921539287779282 6.0108671660500006 0.12906025980686303 0.15913245100364015 0.53267485069230092 5.292153928800249 0.32517147825225268 0.081705944281258769 1.0000000180025095e-35 5.249295121869836 6.6558736204860871 6.0147747387581072 0.32517147825225268
decision_type=2 2 2 2 2 2 2 2 2 2 2 2 2 2 2 2 2 2 2 2 2 2 2 2 2 2 2 2 2
left_child=2 7 5 6 17 9 18 10 14 23 11 25 13 28 -5 -16 -10 20 24 -8 21 -3 -13 -1 -4 -2 -14 -23 -9
right_child=1 4 3 8 -6 -7 19 12 16 -11 -12 22 26 -15 15 -17 -18 -19 -20 -21 -22 27 -24 -25 -26 -27 -28 -29 -30
leaf_value=-0.042207721514228615 0.12175615996763899 0.1482969541912996 -0.0026714540178125554 -0.019289474456375369 0.19637684512331277 -0.0015240837763860499 0.050333657010049132 0.04070601736033673 0.18864266141768427 0.02380103153944426 0.18022734066753676 0.041252218600991486 0.15373220000578011 -0.0064029331741437242 0.031954789028072715 -0.015826329159391535 0.024250642472589522 0.073311524465680122 0.1377496026456356 0.19306518815714738 0.16298968688757332 0.13433185266459594 0.096709018295461482 -0.034276350815814836 0.032205823889773562 0.049539779564913587 0.038675331295310679 0.073548555629138646 0.08151544849223416
leaf_count=22470 1533 2579 2475 5897 2719 2494 2701 789 93 581 264 770 230 549 1606 1589 142 224 72 58 3240 434 550 34545 949 170 77 374 819
internal_value=0 2.62128 -0.530719 0.146871 3.23244 -0.706426 0.578796 1.60427 -0.142793 -0.735695 1.99336 1.85265 1.08522 0.884219 -0.19265 0.163827 1.78616 2.95657 0.193761 1.06668 3.00695 2.76507 1.28718 -0.748043 0.139903 2.29094 2.49749 2.12394 1.22983
internal_count=90993 15321 75672 15582 9570 60090 6255 5751 9327 57596 3287 3023 2464 2157 9092 3195 235 6851 3496 2759 6627 3387 1320 57015 3424 1703 307 808 1608
shrinkage=0.05


Tree=5
num_leaves=30
num_cat=0
split_feature=565 565 565 5 30 566 566 565 565 565 4 21 566 17 5 565 566 21 566 566 4 17 566 4 16 21 566 566 10
split_gain=114298 10658.3 5757.05 2025.07 1469.82 1260.81 1106.09 1024.8 877.42 802.355 665.953 593.74 590.515 575.607 562.185 450.468 413.398 531.126 406.751 373.916 461.188 356.242 344.413 337.146 310.044 306.73 270.275 252.14 247.739
threshold=0.2906602009828953 0.15120921774589061 0.43259387289346246 4.7727262666461696 4.7230168214671115 0.3870302549664284 0.10354726872210607 0.23786761405321841 0.34512717719028557 0.20473239213127972 6.0524406500078953 5.292153928785015 0.25565796911152977 4.861601600446094 4.8819670487780105 0.095714670486009984 0.21531319346252967 5.4471252449865082 0.12558889293876296 0.22450116969567696 6.4257059319010326 5.2032594893051956 0.26771719786701936 6.0147747387334443 5.674324095350002 6.2752613496052749 0.14508109153412937 0.16412642598294638 5.8185386898572906
decision_type=2 2 2 2 2 2 2 2 2 2 2 2 2 2 2 2 2 2 2 2 2 2 2 2 2 2 2 2 2
left_child=1 4 8 9 6 24 15 16 10 18 21 26 -12 19 -6 -1 23 -18 -3 20 -10 -2 -13 -5 -4 -24 28 -8 -9
right_child=2 3 5 7 14 -7 27 11 13 -11 12 22 -14 -15 -16 -17 17 -19 -20 -21 -22 -23 25 -25 -26 -27 -28 -29 -30
leaf_value=-0.037494850457776056 0.10720938636960464 0.026501821897987218 0.15388489385456028 0.00044982168241779354 0.0090765122035640182 0.1883979017855596 0.029837771083217071 0.072618727512278811 0.13177968654695213 0.077285021501259973 0.029384744783927653 0.002901327008720013 0.12811782624614373 0.0837090928610221 -0.028526167249803988 -0.027769503477801563 0.16822624013021395 -0.014098000670053873 0.13357281840365867 0.18359011106921319 0.059492203234729917 0.040531739274986461 0.19942153248676034 -0.023387678324038645 0.12911828403119688 -0.020819616317749024 0.14115102516280281 0.13305355724361209 0.024216881861019734
leaf_count=42678 1119 2473 3928 4342 2827 2501 332 590 1294 1411 1015 1249 178 1156 1533 16514 77 83 92 266 266 244 43 2253 1863 25 90 72 479
internal_value=0 -0.474483 2.64733 0.343375 -0.643372 3.1746 -0.684376 0.0863848 1.85785 0.940024 1.42791 0.636728 0.882322 2.22636 -0.0828959 -0.695631 -0.11534 1.47291 0.606844 2.57593 2.38907 1.90546 0.177348 -0.153872 2.91835 2.36901 1.15873 0.964653 1.01861
internal_count=90993 77163 13830 13207 63956 8292 59596 9231 5538 3976 2556 2476 1193 2982 4360 59192 6755 160 2565 1826 1560 1363 1317 6595 5791 68 1159 404 1069
shrinkage=0.05


Tree=6
num_leaves=30
num_cat=0
split_feature=565 565 565 566 5 21 565 30 566 566 565 17 21 11 565 21 21 566 566 10 566 4 566 11 565 4 17 566 8
split_gain=103207 7767.2 7351.12 1777.04 1625.5 1012.33 1006.82 962.779 751.178 729.04 654.057 655.577 620.318 608.896 485.703 572.095 467.204 417.35 401.008 422.857 394.395 397.542 381.715 303.305 293.629 287.152 260.711 252.323 241.625
threshold=0.26360022970844438 0.36708452585996437 0.13206241717428327 0.37097675811648712 5.0149300433251982 5.6468683152526049 0.17412590003884443 4.7727262671296007 0.19841010168214843 0.091724515882304417 0.49305848184826112 5.2381020151719406 5.2921539288004977 5.2921539287952681 0.20473239213127972 4.8819670487435172 6.0751663439736117 0.15913245100364015 0.26771719786701936 6.1077685165117446 0.22450116969567696 6.0879531389057862 0.12906025980686303 1.0000000180025095e-35 0.081705944281258769 6.2994658702260526 5.9398952789614858 0.24482171358774135 4.6032702445500009
decision_type=2 2 2 2 2 2 2 2 2 2 2 2 2 2 2 2 2 2 2 2 2 2 2 2 2 2 2 2 2
left_child=2 5 7 10 6 13 22 9 14 24 11 25 -10 20 -6 -16 -13 -8 19 -7 21 -2 23 -4 -1 -3 -20 -27 -9
right_child=1 3 4 -5 8 18 17 28 12 -11 -12 16 -14 -15 15 -17 -18 -19 26 -21 -22 -23 -24 -25 -26 27 -28 -29 -30
leaf_value=-0.038170028803781002 0.10837785116913939 0.14031042097504237 -0.0036310582568180837 0.17704183540961566 -0.018692988410842517 0.042675407366764381 0.043557562641092354 0.0086171459744119241 0.15467964401320808 0.029343705246974897 0.14360478011548947 0.10482086594365224 0.0084712757701762252 0.058046836543136929 0.035719338690400802 -0.011283739625835877 0.030857464894876108 0.17566334634530742 0.13164860575821749 -0.017684313099528236 0.19188849972239858 0.046153086480282088 0.11855202858385289 0.028119827032771078 -0.030832457066624505 0.092106874598826161 -0.027022387327686432 0.15603022795457108 -0.025465106851193194
leaf_count=22477 1349 1595 2658 2773 5712 1217 3003 1755 126 462 4190 595 171 1331 1058 1668 333 61 157 381 116 317 76 1049 34657 741 31 195 739
internal_value=0 2.36687 -0.47921 2.85503 0.132857 1.32836 0.497664 -0.637925 -0.1531 -0.664265 2.60641 2.28457 1.40998 1.67267 -0.208117 0.139177 1.5656 0.923752 0.728213 0.565685 2.0549 1.93076 0.152558 0.107075 -0.674382 2.54818 2.1097 2.10848 -0.0296361
internal_count=90993 15321 75672 10422 15582 4899 6847 60090 8735 57596 7649 3459 297 3113 8438 2726 928 3064 1786 1598 1782 1666 3783 3707 57134 2531 188 936 2494
shrinkage=0.05


Tree=7
num_leaves=30
num_cat=0
split_feature=565 565 565 5 30 566 566 565 11 566 25 21 565 5 566 566 566 566 21 565 566 4 565 11 565 10 566 14 566
split_gain=93310.2 9355.15 4064.48 1826.84 1243.27 1015.35 967.974 897.542 735.36 790.22 617.481 612.265 596.401 572.324 476.986 456.038 399.424 367.999 334.095 316.387 309.597 307.065 280.191 263.328 259.836 256.518 248.735 248.181 274.635
threshold=0.29832433259126295 0.15458272580006691 0.44015200626619377 4.818751664204572 4.1406336843274969e-07 0.46516505695789584 0.13685046677661758 0.24413477559687927 5.9318125669000201 0.22450116969567696 5.2032594893610549 5.6338643673030537 0.20473239213127972 4.8819670487780105 0.30892350019739206 0.069233608115547615 0.19035770035656871 0.29455652246418734 4.5443733959133956 0.12091026175300544 0.12558889293876296 5.9406253511106035 0.34512717719028557 1.0000000180025095e-35 0.1836314601255882 6.2102726737711524 0.14508109153412937 5.6909013168448057 0.22450116969567696
decision_type=2 2 2 2 2 2 2 2 2 2 2 2 2 2 2 2 2 2 2 2 2 2 2 2 2 2 2 2 2
left_child=1 4 8 12 6 27 15 17 9 10 25 16 20 23 -10 19 21 18 24 -1 -3 -9 -12 -6 -5 -2 -14 28 -4
right_child=2 3 5 7 13 -7 -8 11 14 -11 22 -13 26 -15 -16 -17 -18 -19 -20 -21 -22 -23 -24 -25 -26 -27 -28 -29 -30
leaf_value=-0.032982216822543868 0.11143237909738646 0.026368751774957195 0.13316475958994087 -0.0055434945288063593 -0.0040762083702076592 0.17545923284286757 0.094229786039946917 0.066767439511904822 0.030137316802116565 0.16323711643419644 0.040194215288529032 -0.0013800398108706011 0.065672054178138747 -0.02378566807833328 0.11659192785178081 -0.0037222920870503906 0.15096312101169299 0.13080588555336001 -0.013477692704579609 -0.018086859321650425 0.12706630690188347 0.020453144493347213 0.083275127761893802 0.025796452996670639 0.028661782802473269 0.059545176198233421 0.17786489210876766 0.11558327383474745 0.16219134858481182
leaf_count=53595 2142 2259 3676 1195 1764 1963 154 729 759 404 650 904 1577 2532 202 1463 93 50 4317 3819 79 703 900 1268 1037 268 51 1393 1047
internal_value=0 -0.420899 2.43637 0.353302 -0.576638 2.88343 -0.619231 0.104783 1.7581 1.93248 1.79657 0.624488 0.919018 -0.124751 0.966198 -0.62578 1.01104 -0.0865134 -0.107147 -0.639828 0.595426 0.880615 1.30418 0.168334 0.206969 2.11325 1.38373 2.68259 2.79199
internal_count=90993 77589 13404 12994 64595 8079 59031 9028 5325 4364 3960 2429 3966 5564 961 58877 1525 6599 6549 57414 2338 1432 1550 3032 2232 2410 1628 6116 4723
shrinkage=0.05


Tree=8
num_leaves=30
num_cat=0
split_feature=565 565 565 5 565 566 566 17 566 565 21 566 4 565 566 21 565 30 8 21 4 566 4 21 565 21 566 565 17
split_gain=84212.4 8443.03 3668.19 1648.72 1127.4 916.357 836.272 693.001 682.685 637.403 615.462 582.431 1013.56 538.252 475.705 409.302 396.265 383.132 432.314 316.466 285.597 279.411 256.629 244.797 244.086 243.154 286.255 242.956 477.985
threshold=0.29832433259126295 0.15458272580006691 0.44015200626619377 4.818751664204572 0.098505312773972065 0.46516505695789584 0.25565796911152977 5.2032594893051956 0.14508109153412937 0.24413477559687927 4.8616016004115421 0.22450116969567696 6.1376838143072918 0.20473239213127972 0.073407928401924977 6.4053331376185776 0.35028600471013244 5.0556242482290727 4.4785294025500013 4.5443733959133956 6.6143891754312039 0.12558889293876296 4.4555235235087531 6.5574966830501076 0.20245265493643347 6.008268963060158 0.30892350019739206 0.60081132610575894 5.2921539287519446
decision_type=2 2 2 2 2 2 2 2 2 2 2 2 2 2 2 2 2 2 2 2 2 2 2 2 2 2 2 2 2
left_child=1 4 7 13 14 27 9 11 17 19 -11 12 -2 21 22 -8 -14 -6 -19 24 -13 -3 -1 -18 -5 -9 -27 28 -4
right_child=2 3 5 6 8 -7 15 25 -10 10 -12 20 16 -15 -16 -17 23 18 -20 -21 -22 -23 -24 -25 -26 26 -28 -29 -30
leaf_value=-0.031924628102617238 0.10815727208627175 0.025050315177773098 0.13706745550029079 0.00026892984635685477 -0.021221611274511748 0.16668627418186735 0.1359908624284569 0.065522011537967648 0.087006964789161201 0.067838610451132875 0.0095295725092601723 0.1767712312915265 0.027085614451340268 0.065727361121400277 0.042482256518530957 -0.037917214773950131 0.084463834762573242 0.013736013326252627 -0.021335204845465326 -0.013356612148309417 0.10387960603867455 0.12071298677710039 0.034242557587266784 -0.032954525313478832 0.038372034237478127 -0.008040578336748358 0.091485153635342931 0.14096277406349911 0.10234740660977118
leaf_count=46977 2119 2259 2027 1667 13568 1963 174 734 158 619 1683 277 700 1628 217 42 799 1872 1656 4281 261 79 147 47 562 292 96 2149 1940
internal_value=0 -0.399854 2.31455 0.335637 -0.547806 2.73926 0.0995436 1.67019 -0.328973 0.0518931 0.504174 1.85658 1.71396 0.873067 -0.627562 2.04351 1.09829 -0.348096 -0.0545197 -0.108038 2.82819 0.565654 -0.634364 1.55881 0.197518 0.971977 0.331687 2.54846 2.40176
internal_count=90993 77589 13404 12994 64595 8079 9028 5325 17254 8812 2302 4203 3665 3966 47341 216 1546 17096 3528 6510 538 2338 47124 846 2229 1122 388 6116 3967
shrinkage=0.05


Tree=9
num_leaves=30
num_cat=0
split_feature=565 565 565 566 7 4 565 30 566 566 566 21 25 21 565 21 566 565 17 566 566 25 21 5 11 4 565 565 566
split_gain=76002.5 5813.58 5424.45 1325.96 1297.36 820.518 798.735 631.413 622.366 606.78 566.546 519.687 493.694 434.376 370.429 373.424 364.187 360.651 362.394 347.357 335.197 278.119 275.734 275.256 256.353 234.83 249.244 214.912 202.336
threshold=0.26360022970844438 0.36708452585996437 0.12628844097824057 0.30892350019739206 5.1535381046869295 6.2126305766009295 0.17412590003884443 4.6097961695917906 0.19841010168214843 0.25565796911152977 0.08614053273434788 5.2921539288004977 6.0147747386954835 4.3423362801051111 0.21394362344455156 5.1535381046956212 0.15913245100364015 0.50920775245142236 4.6097961688648512 0.14508109153412937 0.13685046677661758 5.0720680073444298 6.5011093815151897 4.7230168221290914 1.0000000180025095e-35 6.5186124384086872 0.32517147825225268 0.081705944281258769 0.50346061853563173
decision_type=2 2 2 2 2 2 2 2 2 2 2 2 2 2 2 2 2 2 2 2 2 2 2 2 2 2 2 2 2
left_child=2 5 7 12 6 13 19 10 14 25 27 -10 17 -2 -6 -16 23 18 -3 24 21 -15 -11 -8 -4 26 -7 -1 -5
right_child=1 3 4 28 8 9 16 -9 11 22 -12 -13 -14 20 15 -17 -18 -19 -20 -21 -22 -23 -24 -25 -26 -27 -28 -29 -30
leaf_value=-0.033073414638273756 0.12173017827413415 0.12137232758343093 -0.0033908261418043985 0.13612706698177029 -0.017638077282434873 0.010824609853962596 0.045226415764501371 -0.00034933593521638783 0.13883167273468441 0.12796373953994031 0.026067948801834696 0.0046715924020349622 0.058117277472859025 0.072053014230815213 0.029680981770456152 -0.013794270800155342 0.15142728624059196 0.12533703823648504 0.087935776971884885 0.12549155566651943 0.11987570148395249 0.03904061839198792 0.013145777583122254 0.016653906283774556 0.022728311193158043 -0.011643628159941655 0.070556035028262576 -0.026749654580924966 0.16085570609050029
leaf_count=22470 372 1407 3593 1613 6534 516 2098 2015 126 191 466 169 423 1643 949 1030 67 3370 1911 59 249 1043 72 1409 1272 549 264 33415 1698
internal_value=0 2.03111 -0.411231 2.45345 0.0804593 1.13265 0.359207 -0.557021 -0.188478 0.542808 -0.57669 1.23948 2.21006 1.4166 -0.237961 0.141073 0.71906 2.27632 2.04229 0.0980145 1.28757 1.18468 1.93061 0.674938 0.0687654 0.268171 0.620828 -0.585846 2.97618
internal_count=90993 15321 75672 10422 17306 4899 8498 58366 8808 1592 56351 295 7111 3307 8513 1979 3574 6688 3318 4924 2935 2686 263 3507 4865 1329 780 55885 3311
shrinkage=0.05


Tree=10
num_leaves=30
num_cat=0
split_feature=565 565 565 5 565 566 566 17 566 565 21 4 566 565 566 4 21 21 566 30 8 565 14 566 565 4 566 21 566
split_gain=68712.1 6877.98 2999.29 1362.44 921.229 807.055 695.408 595.771 575.007 543.41 533.94 530.455 622.621 492.696 412.61 369.432 353.648 315.404 397.517 311.046 376.622 309.317 252.139 248.529 228.611 220.677 220.449 215.89 212.762
threshold=0.29832433259126295 0.15458272580006691 0.42544068715816047 4.7230168221290914 0.098505312773972065 0.46516505695789584 0.25565796911152977 5.1271010813264928 0.14508109153412937 0.23786761405321841 4.8522138637994709 5.7227683627151364 0.22450116969567696 0.20473239213127972 0.078144525232247117 6.5522053834089995 6.4053331376185776 5.2381020152308855 0.17587009352639923 5.0556242482290727 4.4785294025500013 0.35028600471013244 5.6909013168448057 0.22450116969567696 0.20039165542103782 4.4555235235087531 0.12558889293876296 5.9571749230442173 0.30892350019739206
decision_type=2 2 2 2 2 2 2 2 2 2 2 2 2 2 2 2 2 2 2 2 2 2 2 2 2 2 2 2 2
left_child=1 4 7 13 14 22 9 11 19 17 -11 -2 15 26 25 21 -8 18 24 -6 -21 -13 23 -4 -5 -1 -3 -12 -9
right_child=2 3 5 6 8 -7 16 28 -10 10 27 12 -14 -15 -16 -17 -18 -19 -20 20 -22 -23 -24 -25 -26 -27 -28 -29 -30
leaf_value=-0.028791651484578507 0.1167418835077681 0.023363413646999443 0.11355475051263859 -0.0074837446322537698 -0.019161956944669826 0.15047447976284578 0.12480493003981455 0.035180513082916871 0.080101429284373415 0.057371287380530933 0.016936212107980041 0.051673699931590017 0.1272263858128678 0.064182858763232403 0.055584366946187735 0.017784546881683114 -0.036758008883112953 -0.023652798283599809 0.11987362572125027 0.012868231136956785 -0.019866143361381865 0.090903635500905036 0.095846532593721945 0.14064317963823511 0.016479875142143396 0.032565852898318752 0.10894897893453255 -0.022589564976809542 0.10680386812790582
leaf_count=47048 893 2126 3974 3258 13568 1977 175 1054 158 757 1521 1013 440 1417 146 387 42 1670 70 1872 1656 997 1478 1076 1433 147 78 447 115
internal_value=0 -0.361185 2.09072 0.302647 -0.494722 2.44973 0.101385 1.46745 -0.296908 0.059452 0.433706 1.66268 1.4511 0.823616 -0.566818 1.25039 1.87069 -0.0991305 0.0320301 -0.314458 -0.0499377 1.42265 2.28021 2.38653 -0.00326744 -0.572011 0.527846 0.159171 0.844529
internal_count=90993 77589 13404 12994 64595 8505 9373 4899 17254 9156 2725 3730 2837 3621 47341 2397 217 6431 4761 17096 3528 2010 6528 5050 4691 47195 2204 1968 1169
shrinkage=0.05


Tree=11
num_leaves=30
num_cat=0
split_feature=565 565 565 5 30 565 566 566 11 21 566 566 21 565 5 566 21 565 21 566 22 566 565 566 21 11 566 4 566
split_gain=62051.2 6896.61 2109.42 1210.35 836.576 774.176 723.095 608.642 577.289 508.396 487.883 472.822 466.07 432.323 425.219 407.96 301.965 291.498 285.103 262.559 268.108 285.062 251.768 243.553 242.966 224.931 210.75 207.552 205.723
threshold=0.31142541537993312 0.15458272580006691 0.45498109725705332 4.818751664204572 4.1406336843274969e-07 0.24413477559687927 0.096542793668643642 0.46516505695789584 5.9318125669157196 5.8185386898726277 0.19841010168214843 0.23425029764082092 5.1535381047165307 0.20473239213127972 4.8819670487780105 0.30892350019739206 6.4053331376009179 0.35028600471013244 4.8616016004115421 0.29455652246418734 5.302422124790664 0.16972127614948315 0.088428579894082385 0.17587009352639923 5.2921539288004977 1.0000000180025095e-35 0.12558889293876296 6.0147747387014068 0.14508109153412937
decision_type=2 2 2 2 2 2 2 2 2 2 2 2 2 2 2 2 2 2 2 2 2 2 2 2 2 2 2 2 2
left_child=1 4 8 13 6 19 22 -4 11 10 18 12 -2 26 25 -10 17 -14 -7 20 21 27 -1 -8 -23 -6 -3 -5 -15
right_child=2 3 7 5 14 9 23 -9 15 -11 -12 -13 16 28 -16 -17 -18 -19 -20 -21 -22 24 -24 -25 -26 -27 -28 -29 -30
leaf_value=-0.029112608955042057 0.10602099932888183 0.021482595219555131 0.11063504197023749 0.0041748439688683815 -0.0038801784705277745 0.059303642043846562 0.020411497108157605 0.1430990138336638 0.024428392231948978 -0.0080235674290160732 0.12843248525427448 0.13751571709596658 0.04722105959540468 0.054067397660111517 -0.020090985767790493 0.10019467144440382 0.00062610740080857891 0.084412800155433954 0.019788881912550519 0.1105105642080307 -0.030488464651140981 0.10928049263500034 -0.022550422410600977 0.12954331594601012 -0.027498979264117304 0.023728813860882721 0.10456415603432474 -0.01663523324878893 0.1531946694409406
leaf_count=28819 1179 2259 5722 3781 1764 691 496 1931 738 759 144 395 778 1703 2532 234 156 1632 1345 50 862 105 29659 57 47 1268 79 1754 54
internal_value=0 -0.33358 2.04429 0.312729 -0.469986 0.117493 -0.504925 2.37653 1.5469 0.544398 0.789809 1.70973 1.59998 0.767468 -0.0993058 0.853368 1.36085 1.44813 0.663997 -0.0726372 -0.0900662 -0.0112928 -0.515688 0.633203 1.33974 0.153321 0.485798 -0.0483943 1.14228
internal_count=90993 78228 12765 13633 64595 9538 59031 7653 5112 2939 2180 4140 3745 4095 5564 972 2566 2410 2036 6599 6549 5687 58478 553 152 3032 2338 5535 1757
shrinkage=0.05


Tree=12
num_leaves=30
num_cat=0
split_feature=565 565 565 566 7 4 565 566 566 25 30 4 566 566 21 17 565 21 5 11 565 21 565 21 566 566 25 12 566
split_gain=56037.9 4725.74 3741.29 991.231 990.2 800.221 652.271 457.879 441.31 417.445 410.504 409.857 404.181 379.602 322.585 294.835 280.94 277.723 273.36 272.867 267.941 277.18 245.534 394.565 189.834 187.068 186.195 179.306 170.126
threshold=0.2563035481304155 0.36708452585996437 0.12277510019033955 0.29455652246418734 5.1535381046869295 5.7530804377119225 0.1707994580711841 0.281280014657942 0.21531319346252967 6.0147747386954835 4.6097961695917906 6.5186124384086872 0.078144525232247117 0.11981203808306336 5.2921539287779282 5.1271010813264928 0.32517147825225268 6.5011093815151897 4.3354769976574641 1.0000000180025095e-35 0.60081132610575894 6.0147747387581072 0.1836314601255882 4.6097961689173985 0.19035770035656871 0.15334894076540559 5.0402864103334162 4.4903478180948868 0.56471308003994036
decision_type=2 2 2 2 2 2 2 2 2 2 2 2 2 2 2 2 2 2 2 2 2 2 2 2 2 2 2 2 2
left_child=2 5 10 9 6 15 13 11 22 20 12 16 -1 19 -10 25 24 -9 -8 -4 21 -3 -6 -24 26 -2 -7 -21 -5
right_child=1 3 4 28 8 7 18 17 14 -11 -12 -13 -14 -15 -16 -17 -18 -19 -20 27 -22 -23 23 -25 -26 -27 -28 -29 -30
leaf_value=-0.025433382360183322 0.080692805587190441 0.099412934581944265 -0.0053237109115731639 0.11916037360173104 -0.01850253993260478 0.037863122335577433 0.051159644261591856 0.1243234319963317 0.136812466172611 0.043970031843284255 -0.00030863138200226713 -0.0068944306465295651 0.017997156653739171 0.08845400630481659 0.010146049173866831 0.032899775933087405 0.060873825977903633 0.0036889980877599406 0.02095457965421639 0.038709072717913878 0.11546528437654127 0.073617744688096093 0.025519599836460766 -0.012029861726544121 0.09811042766461428 0.16285933688895343 0.0046120015195178499 0.00076651953702154465 0.14246986742619175
leaf_count=54730 1356 3537 4279 2248 5329 904 1062 207 85 386 1735 650 541 126 123 337 861 62 2542 675 1574 1476 977 2464 87 73 788 578 1201
internal_value=0 1.71546 -0.359 2.10704 0.0352005 0.949064 0.264597 0.675992 -0.201452 1.89014 -0.485131 0.573429 -0.500166 0.0527986 1.23818 1.49938 0.748564 1.93038 0.597104 0.0137076 1.94937 1.83636 -0.235596 -0.0273695 0.52162 1.69781 0.447548 0.424129 2.54554
internal_count=90993 15747 75246 10422 18240 5325 9262 3559 8978 6973 57006 3290 55271 5658 208 1766 2640 269 3604 5532 6587 5013 8770 3441 1779 1429 1692 1253 3449
shrinkage=0.05


Tree=13
num_leaves=30
num_cat=0
split_feature=565 565 565 5 565 565 11 566 21 566 566 21 566 30 566 566 5 49 21 566 21 566 20 565 26 17 21 565 566
split_gain=50621 5621.75 1746.27 1073.42 872.858 592.619 512.551 492.5 463.659 426.741 406.599 416.162 405.075 351.334 357.729 338.98 338.039 287.581 285.025 279.7 274.007 475.534 196.747 264.531 275.013 265.234 189.675 189.159 188.519
threshold=0.31142541537993312 0.16380542808571505 0.45498109725705332 4.6689818416056914 0.12091026175300544 0.24413477559687927 5.9318125669157196 0.46516505695789584 5.8185386898726277 0.16972127614948315 0.23425029764082092 5.7227683627001982 0.19841010168214843 4.6097961695917906 0.08614053273434788 0.30892350019739206 4.9598753449958908 1.0000000180025095e-35 4.8616016004115421 0.15913245100364015 5.2381020152308855 0.16972127614948315 5.2921539287581734 0.5717800793204989 2.5000000000000004 6.1215451756438259 6.1484755738593062 0.20697280065567744 0.19035770035656871
decision_type=2 2 2 2 2 2 2 2 2 2 2 2 2 2 2 2 2 2 2 2 2 2 2 2 2 2 2 2 2
left_child=1 4 6 19 13 20 10 22 12 16 11 -2 18 14 -1 26 17 -6 -7 27 21 -5 -4 24 -24 -26 28 -3 -8
right_child=2 3 7 5 9 8 15 -9 -10 -11 -12 -13 -14 -15 -16 -17 -18 -19 -20 -21 -22 -23 23 -25 25 -27 -28 -29 -30
leaf_value=-0.024230833898963518 0.083890311110828286 0.028939593282970501 0.10840098270213623 0.0034045546700602601 0.015471412125560975 0.05559578457819158 0.022913434885326447 0.12927022091716389 -0.0078101937397639784 0.10307915282660518 0.12561341362663464 0.048355839459919468 0.11771272885388342 -0.0001823982332889942 0.027292270444135753 0.08945704703657037 -0.018237450374523744 -0.0085129467812777634 0.018435241404892885 0.14278465117727007 -0.017045078646899064 0.10729433667343276 0.10252300343759682 0.10206573802062656 0.06235164779387492 -0.028674038127064705 -0.014703344709788386 0.055935405535988594 0.10025399688518409
leaf_count=54176 2521 1394 3165 4364 1980 796 386 1931 773 87 395 1224 145 1606 339 234 4509 3389 1467 70 1806 113 368 1612 481 96 253 1214 99
internal_value=0 -0.301294 1.84643 0.324115 -0.416201 0.165951 1.39388 2.14872 0.517635 -0.143466 1.54731 1.44553 0.733946 -0.464628 -0.478209 0.740385 -0.162887 0.0066419 0.630126 0.883064 -0.0121015 0.120535 2.00135 1.79505 1.37496 0.94414 0.407853 0.830118 0.77401
internal_count=90993 78228 12765 12142 66086 9464 5112 7653 3181 9965 4140 3745 2408 56121 54515 972 9878 5369 2263 2678 6283 4477 5722 2557 945 577 738 2608 485
shrinkage=0.05


Tree=14
num_leaves=30
num_cat=0
split_feature=565 565 565 5 565 566 565 4 566 21 566 566 21 17 566 566 565 10 4 566 17 23 566 21 5 4 25 566 14
split_gain=45697.4 4551.44 2036.7 945.099 642.918 543.141 509.243 487.073 610.714 468.092 431.485 355.891 338.581 311.572 280.937 275.084 251.319 248.065 247.366 246.772 220.602 218.19 215.236 212.775 192.109 188.521 185.185 337.391 182.342
threshold=0.29832433259126295 0.15458272580006691 0.42544068715816047 4.6689818416056914 0.098505312773972065 0.3870302549664284 0.2215427036813799 6.1534138563381342 0.19035770035656871 5.292153928785015 0.12906025980686303 0.058862731178474487 6.6361921281896565 5.0880911903061419 0.14508109153412937 0.14508109153412937 0.20697280065567744 5.7819822590335326 7.0092826418938428 0.032177810595427021 5.9318125669010122 1.0000000180025095e-35 0.29455652246418734 6.464550799202061 5.5300808619280675 5.5841370104188321 5.0149300433152382 0.17587009352639923 5.6573110965765387
decision_type=2 2 2 2 2 2 2 2 2 2 2 2 2 2 2 2 2 2 2 2 2 2 2 2 2 2 2 2 2
left_child=1 4 7 14 11 18 26 13 20 15 19 -1 28 25 16 17 -3 -8 -4 21 -9 -6 24 -24 -11 -2 27 -5 -10
right_child=2 3 5 6 10 -7 9 8 12 22 -12 -13 -14 -15 -16 -17 -18 -19 -20 -21 -22 -23 23 -25 -26 -27 -28 -29 -30
leaf_value=-0.02365698331309142 0.11019023051242792 0.022614930465321009 0.094085237752788875 -0.0013432293018865067 -0.0087923395968077991 0.11955867291896777 0.045937517116015611 0.026834936479288432 0.12407582172980676 0.016828202599814782 0.056891525586446126 0.015453183251244913 0.011624340805514105 0.044859134556561119 0.12149132014589106 0.098057842552661909 0.052560940633886916 0.009565345382633865 0.04545267376586469 -0.017536655319558187 -0.08217318169772625 0.017867167047628269 0.14200190048591763 -0.03606441235542298 -0.015693260186111252 0.074816095896918941 -0.019893800629091168 0.10358150402704876 0.067225801743818134
leaf_count=46752 499 1891 5719 4317 5615 2512 1056 1403 299 768 225 589 145 702 94 160 1113 843 274 10525 48 889 51 25 1111 1536 1487 78 267
internal_value=0 -0.29455 1.705 0.245461 -0.403179 2.00084 0.094565 1.19139 0.83662 0.369169 -0.237925 -0.463408 1.59588 1.47164 0.727472 0.701922 0.674202 0.595825 1.83724 -0.256102 0.464578 -0.102968 0.0187144 1.66855 -0.0480165 1.6698 -0.0928305 0.0103783 1.94516
internal_count=90993 77589 13404 12994 64595 8505 9896 4899 2162 4014 17254 47341 711 2737 3098 2059 3004 1899 5993 17029 1451 6504 1955 76 1879 2035 5882 4395 566
shrinkage=0.05


Tree=15
num_leaves=30
num_cat=0
split_feature=565 565 565 7 566 4 566 11 11 566 566 4 30 566 15 20 565 21 565 565 565 21 565 21 21 12 566 21 566
split_gain=41311.4 3545.64 2751.77 785.964 767.768 648.086 498.511 505.123 373.84 355.088 347.858 347.075 317.741 326.143 293.624 251.797 228.82 223.218 210.453 201.462 183.599 333.076 170.276 312.942 168.158 162.644 257.674 194.896 159.248
threshold=0.2563035481304155 0.36708452585996437 0.12277510019033955 5.1535381046869295 0.24482171358774135 5.7530804377119225 0.14508109153412937 1.0000000180025095e-35 5.9746772896729032 0.281280014657942 0.24482171358774135 6.5186124384086872 4.6097961695917906 0.091724515882304417 4.4785294025500013 4.4712424224484941 0.60081132610575894 6.6686565803537334 0.32517147825225268 0.19290954314791564 0.1836314601255882 4.6097961689173985 0.54095744045114447 5.9883326517730717 6.3624669356289463 5.7227683627036443 0.48347890368084201 6.6908489971849034 0.19841010168214843
decision_type=2 2 2 2 2 2 2 2 2 2 2 2 2 2 2 2 2 2 2 2 2 2 2 2 2 2 2 2 2
left_child=2 5 12 6 8 15 7 19 22 11 20 18 13 -1 -9 -2 24 -11 28 -4 -5 -22 23 -3 -10 -6 27 -27 -7
right_child=1 4 3 10 25 9 -8 14 16 17 -12 -13 -14 -15 -16 -17 -18 -19 -20 -21 21 -23 -24 -25 -26 26 -28 -29 -30
leaf_value=-0.021765699262510246 0.078554303982059509 0.087145890803420598 -0.0024461905646861008 -0.016078104012771269 0.1166329179886415 0.01870491507470818 0.10434240473733916 0.038638837692859494 0.053724137690231093 0.10243402878269879 0.071210800301759761 -0.0090790646167901844 0.00024848974403799095 0.030509468674659729 0.0088563273993272542 0.038492647553382275 0.090959848740875537 -0.025581485778093341 0.052000236788139392 0.024884535173575084 0.023383521382906003 -0.010980758541571118 0.09724322442550612 0.050661220763299097 0.0021203385236171577 0.096226515188449768 0.11400151519986478 0.043592546648019322 0.092218827969068051
leaf_count=54971 1178 2570 4974 5351 2306 1702 143 1897 655 229 133 650 1735 300 1468 588 317 40 861 780 980 2514 2005 762 208 410 881 308 77
internal_value=0 1.4729 -0.308239 0.0298353 1.81208 0.80906 0.23421 0.205157 1.60198 0.563313 -0.181004 0.472993 -0.416412 -0.429639 0.512921 1.30431 1.09262 1.66797 0.634158 0.0251741 -0.205141 -0.0268447 1.7146 1.57604 0.825732 2.16272 1.91763 1.47296 0.437736
internal_count=90993 15747 75246 18240 10422 5325 9262 9119 6517 3559 8978 3290 57006 55271 3365 1766 1180 269 2640 5754 8845 3494 5337 3332 863 3905 1599 718 1779
shrinkage=0.05


Tree=16
num_leaves=30
num_cat=0
split_feature=565 565 565 565 4 17 566 565 566 4 7 566 4 565 566 11 21 30 566 566 16 21 566 24 4 22 566 7 566
split_gain=37326.9 4305.09 1206.45 785.992 784.279 501.726 407.751 396.599 351.23 348.575 339.202 308.199 440.571 297.504 291.087 288.545 286.842 272.99 282.013 240.646 223.862 193.177 299.756 192.875 165.656 162.335 224.202 187.626 158.028
threshold=0.31536879542444168 0.17412590003884443 0.49305848184826112 0.12091026175300544 5.6573110965765379 5.2381020151719406 0.25565796911152977 0.24695165101456426 0.12906025980686303 6.4053331376000839 4.9748429458109218 0.22450116969567696 6.4053331376000839 0.26360022970844438 0.26771719786701936 1.0000000180025095e-35 6.0751663439736117 4.6097961695917906 0.08614053273434788 0.15913245100364015 4.4306767569000014 6.1534138563024978 0.37097675811648712 4.2926506987104576 6.8117124599283168 5.3224630459340903 0.14508109153412937 5.8614028209346314 0.25565796911152977
decision_type=2 2 2 2 2 2 2 2 2 2 2 2 2 2 2 2 2 2 2 2 2 2 2 2 2 2 2 2 2
left_child=1 3 5 17 7 11 9 19 10 13 15 12 -2 25 -4 -5 -8 18 -1 23 -9 28 -23 -3 -13 26 -6 -28 -7
right_child=2 4 14 8 6 21 16 20 -10 -11 -12 24 -14 -15 -16 -17 -18 -19 -20 -21 -22 22 -24 -25 -26 -27 27 -29 -30
leaf_value=-0.020826323675976411 0.075275541645611899 0.028701500962213779 0.085179518297950951 -0.0048677411340297622 0.0036677786811063345 0.044690755671167266 0.10751220086600884 0.083343103005477231 0.047099184583533897 -0.019769913748772502 -0.016902611228802308 0.1200072213455483 0.034181460046597077 0.027984999115224968 0.10628098642121933 0.02145352174921231 -0.0040976493546132286 0.00037397286329293164 0.024920342550516835 0.11827719674181583 0.036858292532151629 -0.011788213465288494 0.077596518630161884 -0.0025019618926696409 0.070357915163040172 -0.023078761471990953 0.017371234678207559 0.16470318324863911 0.11649079024791718
leaf_count=54176 2967 2493 3583 4944 2946 874 163 519 308 1308 4885 459 836 1487 3005 1319 89 1606 339 67 517 351 128 618 265 570 47 40 84
internal_value=0 -0.256207 1.60111 -0.35014 0.328077 1.27527 0.114194 0.6656 -0.111438 0.0650503 -0.140542 1.43869 1.32484 0.183374 1.89609 0.0135114 1.36189 -0.398866 -0.410837 0.490442 1.20291 0.760468 0.24195 0.450059 2.03669 0.0280597 0.120078 1.7022 1.01973
internal_count=90993 78441 12552 67577 10864 5964 6650 4214 11456 6398 11148 4527 3803 5090 6588 6263 252 56121 54515 3178 1036 1437 479 3111 724 3603 3033 87 958
shrinkage=0.05


Tree=17
num_leaves=30
num_cat=0
split_feature=565 565 565 565 4 17 566 566 565 5 566 49 4 21 30 566 4 566 17 565 566 565 11 21 566 11 566 4 566
split_gain=33691.7 3742.05 1195.78 709.358 695.133 418.74 389.593 343.886 331.591 317.545 315.187 314.848 286.37 249.219 246.373 265.087 236.898 236.269 245.608 230.765 217.183 212.33 205.681 203.899 195.658 193.185 184.774 190.399 178.773
threshold=0.31142541537993312 0.17412590003884443 0.45498109725705332 0.12091026175300544 5.6573110965765379 4.3423362801102359 0.25565796911152977 0.26771719786701936 0.24695165101456426 4.7727262666461696 0.11981203808306336 1.0000000180025095e-35 6.4053331376000839 6.4053331376185776 4.6097961695917906 0.056611251732365357 6.0147747387334443 0.37097675811648712 5.4708697891117239 0.26360022970844438 0.15913245100364015 0.10302036600687382 4.7230168221257847 6.3043581039678811 0.23425029764082092 6.1534138563007756 0.20652604991336099 6.1149704893189947 0.030869118375925417
decision_type=2 2 2 2 2 2 2 2 2 2 2 2 2 2 2 2 2 2 2 2 2 2 2 2 2 2 2 2 2
left_child=1 3 5 14 8 23 12 25 20 10 11 -5 19 -8 15 -1 -7 18 -18 -6 28 -17 -10 26 -25 -4 27 -2 -3
right_child=2 4 7 9 6 16 13 -9 22 -11 -12 -13 -14 -15 -16 21 17 -19 -20 -21 -22 -23 -24 24 -26 -27 -28 -29 -30
leaf_value=-0.020157928370336864 0.086016703251482682 0.035385318704431047 0.082793377479623509 0.016526108284460019 0.001332836081807626 0.060875041300547876 0.096174145432618957 0.1001684204276119 0.076736500103404562 -0.013636677639586614 0.079086754779170335 -0.007954765360693063 -0.018703525862841613 -0.024445886909961703 0.00035527425158216828 0.015329648324245 0.037185548677622714 0.090156776968788058 -0.010008662756946353 0.025371745446727902 0.11236333624640507 -0.01917251029980916 0.030937814503029633 -0.0041011986809392133 0.081762233273736371 0.051780935281494501 0.11879594896150672 0.050901665045069412 0.011121717173365549
leaf_count=52721 1034 1315 3827 2099 3603 1242 182 3248 552 5715 133 3509 1258 56 1606 965 1177 159 360 1381 67 829 441 155 116 578 253 616 1796
internal_value=0 -0.245803 1.50636 -0.332633 0.305104 1.13187 0.100143 1.75651 0.623528 -0.105866 0.0602458 0.024162 0.0522639 1.35586 -0.378923 -0.390295 0.885677 0.642679 0.522632 0.159874 0.46592 -0.0122731 1.12794 1.46459 0.653043 1.57448 1.58016 1.45814 0.427556
internal_count=90993 78228 12765 67577 10651 5112 6480 7653 4171 11456 5741 5608 6242 238 56121 54515 2938 1696 1537 4984 3178 1794 993 2174 271 4405 1903 1650 3111
shrinkage=0.05


Tree=18
num_leaves=30
num_cat=0
split_feature=565 565 565 5 565 11 566 4 21 566 565 5 566 11 565 21 566 30 10 21 566 566 21 565 4 566 17 566 21
split_gain=30423.5 3500.07 991.274 664.098 640.196 435.939 339.763 401.266 371.45 306.057 287.387 284.759 255.351 236.382 235.729 231.997 223.434 233.868 220.242 194.049 201.433 165.597 150.335 164.631 140.193 177.915 144.72 143.887 146.31
threshold=0.31536879542444168 0.17412590003884443 0.49305848184826112 4.7230168221290914 0.12091026175300544 5.2127435311323049 0.20652604991336099 6.1626642123060416 6.2920545271010484 0.16412642598294638 0.24413477559687927 4.9748429458028136 0.50346061853563173 1.0000000180025095e-35 0.37937805850427009 4.9393406053801145 0.08614053273434788 4.6097961689677183 6.7931323987153176 5.5440421497950689 0.23425029764082092 0.14508109153412937 6.34216817416943 0.37937805850427009 6.4053331376000839 0.35317125405969912 6.0879531389252941 0.25565796911152977 6.0554787904195839
decision_type=2 2 2 2 2 2 2 2 2 2 2 2 2 2 2 2 2 2 2 2 2 2 2 2 2 2 2 2 2
left_child=1 4 5 21 16 19 7 10 18 11 -5 13 -4 -6 -7 -12 17 -1 -8 -2 22 -3 23 -21 27 26 -26 28 -16
right_child=2 3 12 6 9 14 8 -9 -10 -11 15 -13 -14 -15 24 -17 -18 -19 -20 20 -22 -23 -24 -25 25 -27 -28 -29 -30
leaf_value=-0.018806509147125144 0.088328921641348992 0.03422510644791206 0.080075477635698028 0.0041385106871198556 -0.003617472022993392 0.029483755578331768 0.093265731947232283 -0.012650147658316908 -0.024144438642358025 0.073097594587072254 0.050254769818704637 -0.014652954480364933 0.10304589841465839 0.020626045718552574 0.068268977598749489 0.014418017495173938 0.021598802599529763 0.00059559203595799021 -0.019434696202184642 0.034678816063767569 0.097141110115017457 0.1063970660291067 0.0051555371578828786 0.08025565242826059 0.035745491322197918 0.078741990633565809 -0.041199973357074399 0.13026858295302793 0.013328479559105986
leaf_count=54168 1184 2586 4991 3586 4977 1309 289 2233 126 124 732 5095 1597 1260 1112 1179 354 1599 51 387 282 82 162 406 603 232 68 83 136
internal_value=0 -0.231305 1.44549 0.295525 -0.316001 1.15014 0.154462 0.104472 0.983709 -0.100573 0.249685 -0.117671 1.71287 0.0256042 0.926646 0.562903 -0.359977 -0.365004 1.52721 1.4772 1.20022 0.728866 0.980936 1.16026 1.12409 0.819957 0.558955 1.33043 1.24564
internal_count=90993 78441 12552 10864 67577 5964 8196 7730 466 11456 5497 11332 6588 6237 3543 1911 56121 55767 340 2421 1237 2668 955 793 2234 903 671 1331 1248
shrinkage=0.05


Tree=19
num_leaves=30
num_cat=0
split_feature=565 565 565 7 21 566 566 11 566 9 11 4 566 15 14 7 23 566 17 565 21 565 21 566 566 565 565 10 566
split_gain=27506.9 2437.62 1813.53 558.284 538.216 416.362 358.252 369.981 325.899 406.121 283.154 277.052 258.895 246.483 236.182 226.74 215.687 214.624 199.256 191.346 218.135 168.825 166.41 157.574 182.095 156.901 154.417 143.692 238.784
threshold=0.2563035481304155 0.39154865970154079 0.12277510019033955 5.1535381046869295 5.2492951218797019 0.26771719786701936 0.14508109153412937 1.0000000180025095e-35 0.25565796911152977 5.9767413958000022 5.9746772896729032 5.4551413399590629 0.29455652246418734 4.4785294025500013 4.9748429458008543 5.8216359465585059 1.0000000180025095e-35 0.075304575526356402 6.0813018994572445 0.60081132610575894 6.4053331376185776 0.10302036600687382 6.6558736204860871 0.096542793668643642 0.036862250532548331 0.33521393004595545 0.081705944281258769 6.530013085458731 0.14508109153412937
decision_type=2 2 2 2 2 2 2 2 2 2 2 2 2 2 2 2 2 2 2 2 2 2 2 2 2 2 2 2 2
left_child=2 4 16 6 11 10 7 23 9 14 -3 -2 -5 -9 -6 27 17 26 22 20 -12 -19 -10 24 -4 -16 -1 28 -13
right_child=1 5 3 12 8 -7 -8 13 18 -11 19 15 -14 -15 25 -17 -18 21 -20 -21 -22 -23 -24 -25 -26 -27 -28 -29 -30
leaf_value=-0.020782271755553583 0.083536446536028833 0.073282994600873688 0.0081740979778083932 -0.0085016208801434439 0.041051840679537682 0.089400889626985433 0.088285713971077984 0.033601547456378361 0.095876197889447221 -0.013321049561748259 0.04732551814973817 0.036438938796597951 0.086693315207958227 0.0063143020835819304 -0.006259220140736277 0.10119752753525973 0.017785655079792101 0.042757375235669318 -0.021254493189709529 0.076880985552842701 -0.012442174449563026 -0.0087094105674192235 0.0023710453719423528 0.038335002729955242 -0.010043580729246054 0.032324165829867448 -0.015422282091876686 -0.04290095705252428 0.11302775207462662
leaf_count=22479 594 4793 2724 8906 1481 3576 143 1897 288 770 645 1534 72 1468 615 160 443 256 56 356 200 422 57 267 2763 461 33406 52 109
internal_value=0 1.20188 -0.251521 0.0229322 0.712153 1.51797 0.19518 0.170551 0.472907 0.370259 1.35686 1.07635 -0.154764 0.433947 0.561985 0.886017 -0.339337 -0.34478 1.32455 0.922667 0.663586 0.21447 1.60855 0.0165147 -0.0199897 0.205428 -0.351565 0.778602 0.8304
internal_count=90993 15747 75246 18240 6177 9570 9262 9119 3728 3327 5994 2449 8978 3365 2557 1855 57006 56563 401 1201 845 678 345 5754 5487 1076 55885 1695 1643
shrinkage=0.05


Tree=20
num_leaves=30
num_cat=0
split_feature=565 565 565 565 4 17 5 566 4 566 11 566 4 566 21 21 566 24 566 26 566 565 566 566 565 566 565 566 565
split_gain=24848.4 2900.32 824.217 592.004 585.349 466.4 308.843 279.94 330.14 270.918 264.323 261.615 256.486 253.848 207.818 199.975 277.04 194.369 212.491 189.482 198.51 202.806 188.614 182.265 174.17 159.894 159.548 154.966 153.465
threshold=0.31536879542444168 0.1836314601255882 0.53267485069230092 0.12091026175300544 5.6573110965765379 5.2381020151719406 4.9598753449958908 0.21531319346252967 6.464550799202061 0.11981203808306336 1.0000000180025095e-35 0.25565796911152977 6.4063669393271478 0.15913245100364015 6.0751663439736117 6.008268963060158 0.33816707117600125 5.2921539287915929 0.14508109153412937 1.5000000000000002 0.051141515538344472 0.10259452603382564 0.030869118375925417 0.56471308003994036 0.23522629194188985 0.10794612903378641 0.46203069197010543 0.18246394231553562 0.37937805850427009
decision_type=2 2 2 2 2 2 2 2 2 2 2 2 2 2 2 2 2 2 2 2 2 2 2 2 2 2 2 2 2
left_child=1 3 5 19 13 7 9 8 28 10 -5 12 17 22 -13 -7 -17 18 -6 20 -1 25 -3 -4 -24 -22 -10 -8 -2
right_child=2 4 23 6 11 15 27 -9 26 -11 -12 14 -14 -15 -16 16 -18 -19 -20 -21 21 -23 24 -25 -26 -27 -28 -29 -30
leaf_value=-0.017129325539736642 0.051221604882615859 0.044149631419988004 0.075177895840852035 -0.0037212350328819782 0.010763793191085084 0.049405541200088401 -0.013149487853282384 0.086747511027312429 0.010768667634489925 0.06907527625950334 0.020823523902791685 0.089619919584121244 -0.017911245020619339 0.11220690313138459 -0.0058314921503717252 -0.00040737176395930853 0.057315484446825396 -0.015878968795432765 0.071408917804559074 0.023382696290810905 0.0065280904268402058 -0.0184075944553704 0.0080851238074076334 0.097730940180354664 0.03747516251608448 0.10788258552551269 0.064260011848978976 0.056462099669892109 0.072336470553277341
leaf_count=53149 1582 1319 4398 4927 3897 946 6162 926 516 153 1411 162 1104 95 88 682 299 680 150 300 1431 1201 1243 1125 848 40 191 81 1887
internal_value=0 -0.20904 1.30635 -0.280787 0.306307 1.07921 -0.0861281 1.23751 1.12721 0.0666029 0.0348611 0.118702 0.0757542 0.631793 1.12042 0.660064 0.343721 0.177111 0.260231 -0.324956 -0.329216 -0.0632524 0.586875 1.59544 0.400084 0.185683 0.504393 -0.244926 1.25415
internal_count=90993 78441 12552 68855 9586 7029 12734 5102 4176 6491 6338 6081 5831 3505 250 1927 981 4727 4047 56121 55821 2672 3410 5523 2091 1471 707 6243 3469
shrinkage=0.05


Tree=21
num_leaves=30
num_cat=0
split_feature=565 565 565 7 12 566 4 11 566 566 11 23 566 4 566 21 5 21 7 565 565 3 22 566 565 21 21 12 566
split_gain=22481.1 2074.16 1413.39 490.236 476.418 433.777 305.281 257.273 250.669 247.576 298.429 235.175 214.764 223.701 193.827 179.222 207.485 174.593 167.899 155.332 148.981 143.836 141.739 239.945 157.712 191.517 131.137 128.798 176.945
threshold=0.25303040525724624 0.36708452585996437 0.12628844097824057 5.0525868206003697 4.9748429458051291 0.24482171358774135 5.5011803851009438 5.9746772896729032 0.13685046677661758 0.099877246414276394 1.0000000180025095e-35 1.0000000180025095e-35 0.20652604991336099 6.0879531389057862 0.29455652246418734 5.0402864103145468 5.7168094835481229 6.4053331376009179 4.0927063532575616 0.081705944281258769 0.60081132610575894 6.0640455730000022 5.302422124790664 0.1226418073299425 0.1836314601255882 4.2926506986938016 6.34216817416943 5.7227683627036443 0.48347890368084201
decision_type=2 2 2 2 2 2 2 2 2 2 2 2 2 2 2 2 2 2 2 2 2 2 2 2 2 2 2 2 2
left_child=2 4 8 9 6 7 -2 -3 11 10 21 19 13 -8 22 16 -6 -14 -12 -1 26 -4 23 24 -5 -26 -9 -7 -29
right_child=1 5 3 14 15 27 12 20 -10 -11 18 -13 17 -15 -16 -17 -18 -19 -20 -21 -22 -23 -24 -25 25 -27 -28 28 -30
leaf_value=-0.018792098663934362 0.071251665404407888 0.063801564119968415 0.0071419151853400658 -0.012966683808214223 0.020025958825936132 0.087765661732464098 0.040719390854997151 0.038496686834870758 0.078762333493837169 0.050200407255080438 0.045422384460838967 0.018038070915769717 0.096679067191943316 0.0091746623951958137 0.079228031451885519 0.0030394051860890563 0.095396838568407916 -0.00051762784941721777 0.014975662341638774 -0.013475387089610264 0.067316321765398757 -0.011320668025353742 -0.024876943427956905 0.02762791799859526 0.02865050101885995 -0.0047333898834693126 -0.0064977932238468421 0.050875033467260911 0.08431480861143141
leaf_count=22505 671 5337 2824 4620 429 2306 1475 647 71 372 553 526 213 908 65 1667 116 59 2499 35264 317 1684 1027 522 551 1950 216 718 881
internal_value=0 1.07774 -0.229242 0.0275938 0.583198 1.34053 0.822391 1.18261 -0.302584 0.20757 0.16838 -0.304872 0.670085 0.573997 -0.135837 0.223543 0.721364 1.51192 0.409848 -0.310932 0.760053 0.00490135 -0.148735 -0.101866 -0.149838 0.0524296 0.544701 1.60408 1.38599
internal_count=90993 15960 75033 16667 5538 10422 3326 6517 58366 7932 7560 58295 2655 2383 8735 2212 545 272 3052 57769 1180 4508 8670 7643 7121 2501 863 3905 1599
shrinkage=0.05


Tree=22
num_leaves=30
num_cat=0
split_feature=565 565 565 5 566 17 4 566 30 565 21 566 8 4 14 12 566 4 10 565 21 566 49 22 565 565 21 566 26
split_gain=20309.8 2032.42 963.615 534.956 381.02 325.415 280.648 282.208 276.458 266.417 307.365 259.405 241.874 215.933 189.942 186.163 185.069 166.409 158.77 158.743 339.237 156.704 172.781 289.14 152.068 150.701 142.4 201.655 139.503
threshold=0.29832433259126295 0.15458272580006691 0.42544068715816047 4.6689818416056914 0.13685046677661758 5.1271010813264928 5.7227683627151364 0.19035770035656871 3.2951286094835974 0.2215427036813799 5.292153928785015 0.48347890368084201 4.5229543387500017 6.1376838143072918 4.9207985593524475 4.7961650345660489 0.11981203808306336 6.6143891754312039 3.81422975670543 0.5717800793204989 6.4053331376009179 0.069233608115547615 1.0000000180025095e-35 4.2386439164871108 0.12277510019033955 0.20473239213127972 5.1535381046669704 0.17587009352639923 1.5000000000000002
decision_type=2 2 2 2 2 2 2 2 2 2 2 2 2 2 2 2 2 2 2 2 2 2 2 2 2 2 2 2 2
left_child=1 4 5 25 8 6 -2 13 21 26 14 15 18 -8 16 -4 -11 -9 -10 20 -17 -1 23 24 -23 -3 27 -5 -7
right_child=2 3 11 9 -6 28 7 17 12 10 -12 -13 -14 -15 -16 19 -18 -19 -20 -21 -22 22 -24 -25 -26 -27 -28 -29 -30
leaf_value=-0.015074691194472731 0.070829036711712035 0.017552158406622567 0.075712139383411273 -0.00096281253434840142 0.055457973852753639 0.03331983531413435 0.047721147041969988 0.096829765839147736 -0.007700783990207731 0.033040875163608659 -0.0017199410136093569 0.083685033261124558 -0.012721412957322842 0.016762453952143271 0.0094888785613767707 0.057717462394108202 0.1000246733945349 0.042544926681380345 0.01799920579209241 0.067099837526592251 0.012085841731591659 0.037441577343545723 -0.013722571614453623 -0.019451075305050317 0.13727106549019039 0.040169098142960775 -0.017217845947068502 0.084001358629952019 -0.0012257388608591076
leaf_count=57432 893 1892 1892 4258 200 588 1032 289 965 998 1955 1830 2940 1240 946 2088 115 276 1593 2189 506 338 821 263 43 1206 1553 71 581
internal_value=0 -0.196366 1.13666 0.16449 -0.268956 0.783385 0.927669 0.773774 -0.273236 0.0509635 0.249585 1.34016 -0.0587831 0.616494 0.519224 1.24871 0.799239 1.40624 0.166079 1.14368 0.976326 -0.293256 0.0297071 0.417462 0.974168 0.527131 -0.0845796 0.00861372 0.32301
internal_count=90993 77589 13404 12994 64595 4899 3730 2837 64395 9896 4014 8505 5498 2272 2059 6675 1113 565 2558 4783 2594 58897 1465 644 381 3098 5882 4329 1169
shrinkage=0.05


Tree=23
num_leaves=30
num_cat=0
split_feature=565 565 565 4 565 17 566 566 21 566 566 28 566 3 566 21 566 4 566 22 17 565 4 566 565 20 21 27 566
split_gain=18362.5 2139.06 623.602 476.929 454.568 353.937 327.514 263.024 216.79 338.381 214.489 199.539 182.234 166.46 165.451 164.649 234.856 185.757 163.479 147.689 142.779 142.567 149.206 149.674 131.395 126.78 124.036 122.464 120.454
threshold=0.31536879542444168 0.1836314601255882 0.49305848184826112 5.6573110965765379 0.096012004227446601 4.6097961688648512 0.15334894076540559 0.032177810595427021 5.8185386898726277 0.19841010168214843 0.15913245100364015 1.5000000000000002 0.051141515538344472 6.2227341917000016 0.56471308003994036 6.722718658901405 0.25565796911152977 6.0147747387334443 0.039579927216667726 4.7727262666621604 5.4390043779047401 0.35028600471013244 6.0524406500078953 0.14508109153412937 0.24695165101456426 5.2921539287581734 4.9170228128797584 2.5000000000000004 0.096542793668643642
decision_type=2 2 2 2 2 2 2 2 2 2 2 2 2 2 2 2 2 2 2 2 2 2 2 2 2 2 2 2 2
left_child=1 4 5 10 12 21 7 11 9 18 13 -6 -1 19 25 16 17 -7 -5 24 -19 22 -2 -24 -3 -4 -8 -11 -9
right_child=2 3 14 8 6 15 26 28 -10 27 -12 -13 -14 -15 -16 -17 -18 20 -20 -21 -22 -23 23 -25 -26 -27 -28 -29 -30
leaf_value=-0.015588012267492977 0.060940453389966467 0.029378761937190696 0.071021428229951986 0.020119023162399663 -0.0012499485915511944 0.044058717723421376 0.077956191660502022 -0.012073208352223601 -0.013055369741687648 0.082078471736839187 0.10193831729261499 0.056732216003714808 0.0079685099734485218 0.0039940334450891159 0.083822266233140888 -0.018802256649043284 0.070061202609822862 0.027060494473236038 -0.0001664005783133772 0.0057578410585550797 -0.0091718411604563409 0.064773360327176108 -0.0026562702439048074 0.058165937475860123 0.056696433205771168 0.05571601509871428 5.9463632734198325e-05 -0.01061416601025781 0.0068914798258658721
leaf_count=42968 443 1645 2606 1484 8556 1202 156 15225 1343 208 95 151 837 698 1168 147 420 989 3003 466 375 1953 275 160 601 2814 76 43 886
internal_value=0 -0.179699 1.12299 0.262878 -0.241315 0.888728 -0.133869 -0.144924 0.0935355 0.19406 0.556678 -0.00488801 -0.302758 0.515388 1.33507 0.657158 0.708022 0.594559 0.130853 0.627476 0.341985 1.145 0.810312 0.394302 0.733772 1.2615 1.04877 1.32398 -0.220605
internal_count=90993 78441 12552 9586 68855 5964 25050 24818 6081 4738 3505 8707 43805 3410 6588 3133 2986 2566 4487 2712 1364 2831 878 435 2246 5420 232 251 16111
shrinkage=0.05


Tree=24
num_leaves=30
num_cat=0
split_feature=565 565 565 21 5 565 566 11 17 566 9 11 5 566 26 566 566 21 566 8 565 10 23 22 566 21 565 21 272
split_gain=16620.8 1482.65 1084.96 405.343 389.159 274.64 261.123 249.957 236.044 231.944 276.414 220.963 198.014 190.143 164.456 154.778 154.429 211.005 141.277 139.052 123.329 120.212 118.685 116.023 206.4 147.335 136.959 152.342 127.05
threshold=0.2563035481304155 0.39154865970154079 0.12277510019033955 5.4471252449865082 5.1535381046845421 0.61571569188722008 0.14508109153412937 4.9748429458476489 5.2921539287519446 0.30892350019739206 5.9767413958000022 1.0000000180025095e-35 4.2926506986922464 0.30892350019739206 1.5000000000000002 0.13685046677661758 0.48347890368084201 6.5356359118111511 0.25565796911152977 5.8229550190000019 0.081705944281258769 6.7227186589015551 1.3228923806926367 5.302422124790664 0.12558889293876296 5.0402864103527252 0.1836314601255882 4.1794920765989731 5.5000000000000009
decision_type=2 2 2 2 2 2 2 2 2 2 2 2 2 2 2 2 2 2 2 2 2 2 2 2 2 2 2 2 2
left_child=2 3 14 7 6 8 11 22 -3 10 -5 -4 -13 23 15 20 17 18 -10 -9 -1 -20 -2 24 26 28 -6 -28 -26
right_child=1 5 4 9 13 -7 -8 19 16 -11 -12 12 -14 -15 -16 -17 -18 -19 21 -21 -22 -23 -24 -25 25 -27 27 -29 -30
leaf_value=-0.01632423266845897 0.074170112129554017 0.062574278168108094 0.0011438586022779907 0.020170819649812422 -0.011932771398980805 0.071693213258947633 0.076145186355645711 0.023039982217600629 0.041140238668013203 0.061675650055209801 -0.015119692395312356 0.041058667845234154 0.011040425025677496 0.078743672095812289 0.02291347873248872 0.072033361219010258 0.072214470460974858 0.012251288774357716 0.08983304467765002 0.089103078700247265 -0.011556625106665424 0.0082835187514623005 0.044724682940571914 -0.022582026205152414 0.065019800376482792 -0.0030801815841986048 0.028791325872884296 -0.0033520816034226237 -0.029456294363453275
leaf_count=22513 515 3391 5707 2013 4964 2961 139 1539 1906 240 766 698 2580 65 314 53 413 568 277 84 34126 54 1020 1065 233 239 449 2059 42
internal_value=0 0.934254 -0.195515 0.552321 0.0167668 1.18077 0.162769 0.802786 1.06738 0.290323 0.208868 0.141728 0.348647 -0.129364 -0.263438 -0.267435 0.873385 0.789327 0.927531 0.529183 -0.269033 1.53058 1.09208 -0.141603 -0.100257 0.512696 -0.142422 0.0480492 1.01181
internal_count=90993 15747 75246 6177 18240 9570 9124 3158 6609 3019 2779 8985 3278 9116 57006 56692 3218 2805 2237 1623 56639 331 1535 9051 7986 514 7472 2508 275
shrinkage=0.05


Tree=25
num_leaves=30
num_cat=0
split_feature=565 565 566 4 565 10 566 566 565 21 566 566 566 28 12 566 565 21 11 565 20 566 21 565 523 11 9 4 566
split_gain=15017.3 1744.68 533.326 415.924 371.548 299.986 268.105 262.386 255.737 271.448 233.092 228.496 181.94 173.577 171.846 163.672 146.416 144.724 143.68 132.785 128.248 212.994 131.192 136.88 122.128 121.588 128.885 117.248 170.858
threshold=0.31536879542444168 0.1836314601255882 0.24482171358774135 6.0524406500078953 0.096012004227446601 6.4707952356301917 0.15334894076540559 0.13685046677661758 0.42544068715816047 5.3024221247658874 0.029939563406156392 0.032177810595427021 0.26771719786701936 1.5000000000000002 4.9748429458051291 0.051141515538344472 0.2563035481304155 6.2752613496052749 5.9950494159698478 0.46203069197010543 5.7819822590973207 0.48347890368084201 6.722718658901405 0.55021861338277789 4.328234182403766 5.1378112480231914 6.0108671660500006 6.0147747387334443 0.088971165263811935
decision_type=2 2 2 2 2 2 2 2 2 2 2 2 2 2 2 2 2 2 2 2 2 2 2 2 2 2 2 2 2
left_child=1 4 5 7 15 8 11 10 9 25 -3 13 -5 -6 16 -1 -12 -14 -11 24 -4 22 -22 -24 -7 -2 -27 28 -13
right_child=2 3 20 12 6 19 -8 -9 -10 18 14 27 17 -15 -16 -17 -18 -19 -20 -21 21 -23 23 -25 -26 26 -28 -29 -30
leaf_value=-0.014111820792595873 0.069670267511497838 0.036244123027341327 0.071833097384442546 -0.0056387514809106429 -0.00096266531795193618 -0.02232689435539377 0.047449765071786686 0.07176855396965276 0.054043227178684775 0.027942916475505515 0.011448568911932614 -0.0095689757372510731 0.071711653385230972 0.053116128756510506 -0.0035952043618745866 0.0082127944436124582 0.033860783120480985 -0.021203063130378726 -0.020571155605201952 0.033487129374545004 0.051929742493412714 0.068342397071738031 -0.05356885752120575 0.026498808604718628 0.070851468052715069 0.034849258173795576 0.14624521776481911 -0.020761494235583405 0.017367614921811339
leaf_count=42968 605 1289 2724 3066 8556 291 232 230 4510 1772 2521 13280 139 151 1256 837 1025 60 167 338 275 874 77 174 40 678 27 2215 616
internal_value=0 -0.162509 1.01556 0.237192 -0.218155 0.871374 -0.121016 0.386898 0.926772 0.712874 0.347307 -0.131018 -0.0526351 -0.000496219 0.245954 -0.273705 0.35854 0.873943 0.475291 0.228866 1.31024 1.06426 0.56147 0.0387244 -0.221333 1.06453 0.78231 -0.201557 -0.167498
internal_count=90993 78441 12552 9586 68855 8428 25050 6321 7759 3249 6091 24818 3265 8707 4802 43805 3546 199 1939 669 4124 1400 526 251 331 1310 705 16111 13896
shrinkage=0.05


Tree=26
num_leaves=30
num_cat=0
split_feature=565 565 565 12 7 566 4 11 566 11 7 21 5 566 22 566 566 565 30 566 566 566 4 21 566 565 20 26 21
split_gain=13574.8 1277.11 858.248 359.294 320.247 317.705 235.323 233.006 224.536 227.73 189.471 165.022 171.878 149.541 170.271 136.223 134.847 168.884 155.52 131.286 138.515 118.909 116.924 113.98 208.388 116.353 152.351 180.35 112.881
threshold=0.25303040525724624 0.35577947032129947 0.12091026175300544 4.9748429458051291 5.1535381046869295 0.24482171358774135 5.4054159739944749 6.1534138562978553 0.15913245100364015 1.0000000180025095e-35 4.0927063532575616 5.0402864103145468 5.6799051190712584 0.21531319346252967 5.3418777021849566 0.30892350019739206 0.056611251732365357 0.10302036600687382 4.6097961689677183 0.096542793668643642 0.036862250532548331 0.10794612903378641 7.0494801816267154 6.6558736204860871 0.50346061853563173 0.5717800793204989 5.6503302958000026 3.5000000000000004 6.4053331376009179
decision_type=2 2 2 2 2 2 2 2 2 2 2 2 2 2 2 2 2 2 2 2 2 2 2 2 2 2 2 2 2
left_child=2 3 16 6 8 7 -2 22 9 19 -11 12 -5 14 -8 -6 18 21 -1 20 -4 -18 -3 -7 25 26 -25 -28 -15
right_child=1 5 4 11 15 23 13 -9 -10 10 -12 -13 -14 28 -16 -17 17 -19 -20 -21 -22 -23 -24 24 -26 -27 27 -29 -30
leaf_value=-0.012923146977619005 0.062147167615229718 0.048742592057615129 0.0061446689044714134 0.013837357362111412 -0.0069685642587769478 0.0724812872590892 0.029087245382629991 0.018894576528510509 0.078586641789596776 0.041693728257767598 0.010744649798447716 -0.0036264357136466408 0.083337242247765522 0.082367973145511419 -0.0034447727912618208 0.069254623631299556 0.012033725387993313 -0.014511419096909001 0.0031257761184466551 0.031795729682468375 -0.0089615084397777125 0.099052611938337004 -0.066732942516153512 0.041761718177921563 0.067821723364767966 0.050393531280443882 0.0056085691732518823 -0.12736263047246374 -0.0053964552672012998
leaf_count=52717 534 6120 3034 405 9011 1736 1824 755 107 603 2749 1493 114 180 516 59 924 885 1554 313 3036 41 22 189 1335 555 102 34 46
internal_value=0 0.837478 -0.178137 0.425401 0.00609906 1.03166 0.638982 0.902137 0.13102 0.115185 0.326243 0.0963251 0.582065 0.513294 0.43827 -0.129455 -0.240222 0.0252726 -0.249272 0.00434858 -0.0282182 0.314618 0.966579 1.25777 1.10741 0.729616 0.254444 -0.552685 1.29009
internal_count=90993 15960 75033 5112 18912 10848 3100 6897 9842 9735 3352 2012 519 2566 2340 9070 56121 1850 54271 6383 6070 965 6142 3951 2215 880 325 136 226
shrinkage=0.05


Tree=27
num_leaves=30
num_cat=0
split_feature=565 565 565 25 17 566 30 7 27 566 565 566 4 566 10 566 21 21 4 21 566 565 566 4 9 565 10 23 4
split_gain=12257.6 1441.74 459.242 378.641 328.23 312.297 288.978 293.296 276.953 194.871 184.551 179.878 177.163 197.243 172.568 153.67 225.765 152.127 145.651 143.807 294.629 123.435 121.73 121.412 128.517 112.664 110.899 110.333 110.301
threshold=0.31536879542444168 0.1836314601255882 0.5717800793204989 4.7727262666653116 5.2921539287833204 0.12906025980686303 3.8625945453341317 4.5015352816055731 1.5000000000000002 0.15913245100364015 0.45498109725705332 0.030869118375925417 5.9536144995321445 0.20652604991336099 1.0000000180025095e-35 0.48347890368084201 6.0751663439736117 4.9170228128797584 6.5778304137576367 6.2920545271010484 0.19841010168214843 0.081705944281258769 0.19035770035656871 6.6404623903735258 5.744133821000001 0.24413477559687927 6.7931323987153176 1.4127520775193201e-12 6.7227186588555936
decision_type=2 2 2 2 2 2 2 2 2 2 2 2 2 2 2 2 2 2 2 2 2 2 2 2 2 2 2 2 2
left_child=1 5 4 8 10 6 21 14 9 11 12 -3 -2 18 -8 16 22 -7 -14 20 -5 -1 -6 -15 -25 -13 -22 -27 -24
right_child=2 3 -4 19 15 17 7 -9 -10 -11 -12 25 13 23 -16 -17 -18 -19 -20 -21 26 -23 28 24 -26 27 -28 -29 -30
leaf_value=-0.014253895441618619 0.053836764620211058 0.041337873004600345 0.058762584204800988 -0.0014329722645766959 0.030538989811887136 0.054155918374551949 -0.0079702773619265786 -0.0085811915782726886 0.0035261754286695758 0.090079114933808657 0.059110584817534187 0.0097239043195065863 0.030148908456914654 0.080160757711059183 0.018778110417909138 0.065978190703743 0.0042186707936292681 -0.0087214986143046864 -0.0057372623044943463 -0.029955618732208311 0.06954107199396406 -0.0095788545963280524 0.11449898952319298 -0.065068768735589658 0.04529142538978629 0.060171088529011568 -0.016175707267678304 0.019808608524559082 -0.011748894778164952
leaf_count=22484 1381 1167 4458 3491 1036 282 840 5015 1818 120 1719 1587 1567 285 2137 197 1140 146 345 379 210 37951 81 29 292 252 46 516 22
internal_value=0 -0.146819 0.917515 0.216527 0.775559 -0.197404 -0.202731 -0.0240262 0.389295 0.548418 0.909247 0.505721 0.788902 0.63104 0.224614 0.472224 0.398979 0.654142 0.473473 -0.0120996 0.0472753 -0.226363 0.71386 1.12818 0.706424 0.346634 1.08278 0.661051 1.75067
internal_count=90993 78441 12552 9586 8094 68855 68427 7992 5460 3642 5618 3522 3899 2518 2977 2476 2279 428 1912 4126 3747 60435 1139 606 321 2355 256 768 103
shrinkage=0.05


Tree=28
num_leaves=30
num_cat=0
split_feature=565 565 565 12 5 566 11 4 566 23 566 3 21 5 566 3 27 21 566 22 565 17 566 25 8 10 21 566 14
split_gain=11097 1046.23 707.878 314.624 296.883 270.345 204.342 199.696 188.71 164.361 144.914 148.111 142.889 153.523 125.875 160.209 114.712 116.722 114.457 126.576 160.306 113.708 107.302 105.711 105.151 104.986 104.132 180.487 126.351
threshold=0.25303040525724624 0.35577947032129947 0.13051454884999866 4.9748429458051291 4.8616016003946783 0.24482171358774135 6.1534138562978553 5.4054159739944749 0.13685046677661758 1.0000000180025095e-35 0.21531319346252967 6.0640455730000022 5.0402864103145468 5.6799051190712584 0.21531319346252967 6.0640455730000022 6.5000000000000009 4.8187516642157222 0.30892350019739206 5.302422124790664 0.20039165542103782 4.1141106473581681 0.18246394231553562 5.2032594893610549 6.2908094151500018 6.0585021474828533 6.6558736204860871 0.46516505695789584 5.5879958039500011
decision_type=2 2 2 2 2 2 2 2 2 2 2 2 2 2 2 2 2 2 2 2 2 2 2 2 2 2 2 2 2
left_child=2 3 8 7 10 6 23 -2 9 -1 11 -4 13 -5 15 16 17 -9 19 20 22 24 -6 -3 -22 -10 -7 28 -28
right_child=1 5 4 12 18 26 -8 14 25 -11 -12 -13 -14 -15 -16 -17 -18 -19 -20 -21 21 -23 -24 -25 -26 -27 27 -29 -30
leaf_value=-0.010896691391799357 0.05702258484082276 0.050063111425106291 0.015568394868781693 0.011985996394981574 -0.0074590537824501223 0.066245379206866101 0.016126444903973317 0.067483252971558966 0.096248678304255014 0.01498215118723531 0.1103736498289638 -0.0011709058787839198 -0.0040420972474533206 0.077670049092225857 0.059049071991338145 0.0048024349228174756 -0.034068442741408946 0.02759878514052341 0.064899003803730024 -0.020913977798157592 0.01545866604306196 -0.0045506333501845447 0.049785829272614907 0.036938464271821618 0.09977926980508002 -0.022897547254195582 0.050683677120815951 0.05969347070238129 0.0084877618452528954
leaf_count=58952 534 3160 3800 405 5964 1736 755 222 64 620 36 2026 1493 114 226 998 64 1056 60 1031 1368 965 83 2982 38 26 347 1505 363
internal_value=0 0.757195 -0.16106 0.384222 0.0302997 0.932954 0.813471 0.584085 -0.210361 -0.212547 0.207305 0.194946 0.0762809 0.528274 0.468302 0.399471 0.625115 0.690541 -0.0788185 -0.087561 -0.047056 0.173325 -0.133466 0.873819 0.354752 1.23657 1.14153 0.997806 0.582205
internal_count=90993 15960 75033 5112 15371 10848 6897 3100 59662 59572 5862 5826 2012 519 2566 2340 1342 1278 9509 9449 8418 2371 6047 6142 1406 90 3951 2215 710
shrinkage=0.05


Tree=29
num_leaves=30
num_cat=0
split_feature=565 565 565 5 21 566 4 566 10 17 566 23 22 565 565 26 17 565 21 17 566 14 54 25 23 4 7 10 565
split_gain=10024.7 918.098 611.237 337.03 267.994 290.301 262.617 205.631 196.315 187.452 183.139 174.53 162.494 196.351 152.164 193.05 163.143 222.244 200.428 138.46 133.502 129.821 129.784 123.221 122.525 118.422 115.848 113.172 113.055
threshold=0.28630281014265518 0.14733691598076323 0.43259387289346246 4.6689818416056914 6.0993534722386462 0.19035770035656871 6.4053331375996718 0.10574366829206984 6.530013085458731 4.3423362801586824 0.33816707117600125 1.0000000180025095e-35 5.530080861974497 0.21394362344455156 0.61571569188722008 2.5000000000000004 5.2921539287519446 0.55021861338277789 6.0554787904195839 5.3024221247677152 0.19035770035656871 4.7533170691064024 13.500000000000002 4.6575871534083531 1.8462120592444828 6.0147747387334443 5.6909013168448057 6.0585021474828533 0.20473239213127972
decision_type=2 2 2 2 2 2 2 2 2 2 2 2 2 2 2 2 2 2 2 2 2 2 2 2 2 2 2 2 2
left_child=1 7 4 28 5 6 9 11 -7 -2 19 -1 13 20 15 -4 -17 18 -18 -6 25 22 24 -10 -15 -5 -11 -9 -3
right_child=2 3 14 12 10 8 -8 27 23 26 -12 -13 -14 21 -16 16 17 -19 -20 -21 -22 -23 -24 -25 -26 -27 -28 -29 -30
leaf_value=-0.010222596441160602 0.043118548469602572 0.011951723100735105 0.053896327376097168 -0.00014290699545511701 0.0055567764876058605 0.091264513539214998 -0.0080114441565900356 0.043137973662008319 -0.038980356431924379 0.016445084280314225 0.047929582467878054 0.0094702168206893967 -0.020010247638282696 0.0463340558225417 0.056624295578593921 0.051072091577797102 0.033435147964447839 0.037765412261773802 -0.021147623515278893 -0.040215236780879737 0.050547449317361631 0.0013495517829757425 -0.010067870138811982 0.052190481114757152 0.016300962536446171 -0.016272604877664604 0.056576935984008939 -0.0094078078493475912 0.031274973768470944
leaf_count=61726 1815 2408 2187 4142 646 317 471 285 52 1707 191 1146 918 524 2961 1013 303 1450 378 222 112 1608 283 129 965 1569 201 160 1104
internal_value=0 -0.141794 0.776974 0.0936051 0.526459 0.629015 0.543302 -0.192478 1.35086 0.632307 0.0720764 -0.197273 0.000985308 0.0410041 0.950721 0.849762 0.691049 0.533992 0.0627621 -0.122998 -0.070281 0.232724 0.419416 0.519955 0.537401 -0.0914853 0.413456 0.484902 0.36052
internal_count=90993 76950 14043 13633 5751 4692 4194 63317 498 3723 1059 62872 10121 9203 8292 5331 3144 2131 681 868 5823 3380 1772 181 1489 5711 1908 445 3512
shrinkage=0.05


Tree=30
num_leaves=30
num_cat=0
split_feature=565 565 565 5 17 566 566 566 4 565 26 21 566 21 566 4 4 9 4 54 21 565 4 27 565 566 555 28 517
split_gain=9066.19 1069.37 362.907 348.014 289.721 246.114 177.632 203.664 210.983 171.724 163.729 158.277 178.264 133.683 133.668 195.267 131.66 132.431 127.233 125.005 135.198 124.555 120.146 117.968 113.273 109.542 107.762 107.224 100.777
threshold=0.31536879542444168 0.16380542808571505 0.53267485069230092 4.6097961688848565 5.2381020151719406 0.096542793668643642 0.036757673715418389 0.20652604991336099 6.837033159297385 0.20245265493643347 1.5000000000000002 6.008268963060158 0.37097675811648712 6.2920545271010484 0.20652604991336099 6.4053331376000839 6.8117124599283168 6.0739807246500011 4.9643144063095415 37.500000000000007 4.5443733959000321 0.083886811059807845 6.4053331376000839 5.5000000000000009 0.46203069197010543 0.19035770035656871 2.5532101256784312 1.5000000000000002 4.6964059462123773
decision_type=2 2 2 2 2 2 2 2 2 2 2 2 2 2 2 2 2 2 2 2 2 2 2 2 2 2 2 2 2
left_child=1 5 4 23 14 10 9 22 13 -5 21 25 28 -9 15 -2 -16 -18 -7 20 -11 -1 -8 26 -17 -6 -3 -23 -13
right_child=2 3 -4 6 11 18 7 8 -10 19 -12 12 -14 -15 16 24 17 -19 -20 -21 -22 27 -24 -25 -26 -27 -28 -29 -30
leaf_value=-0.012093565388645434 0.039967024833063525 0.031393404756554881 0.049045368214776529 8.7669562572536926e-05 0.024612602346771678 0.03803695645091569 -0.00043294272943301677 0.062595040278889277 -0.030801750394431029 0.051169340405167574 0.013685195805338654 -0.007655992908164478 0.037484142749677062 -0.014614551957102789 0.068656341836359533 0.002680271350924337 -0.028488563736279806 0.046267125163729314 -0.00034850453089219633 -0.043445125628601422 0.017999667867799583 -0.0077755707286057936 -0.017594015614633553 -0.023906404943000982 0.042323766765091198 0.08379711764323157 0.0040328503464142126 0.039760599792504514 -0.10790078468047655
leaf_count=26507 3222 1937 5523 1389 860 406 5066 299 110 418 773 702 253 69 622 652 75 282 461 66 1159 37820 1277 123 249 86 442 119 26
internal_value=0 -0.126268 0.789084 0.143771 0.63836 -0.176753 0.0591967 -0.0303226 0.599135 0.260586 -0.183789 0.308012 0.0265762 0.962365 0.763131 0.684259 1.0953 0.611243 0.352534 0.479404 0.535833 -0.189276 -0.0777577 0.476827 0.272723 0.59986 0.5262 -0.152529 -0.224723
internal_count=90993 78441 12552 12355 7029 66086 9853 6821 478 3032 65219 1927 981 368 5102 4123 979 357 867 1643 1577 64446 6343 2502 901 946 2379 37939 728
shrinkage=0.05


Tree=31
num_leaves=30
num_cat=0
split_feature=565 565 565 4 7 17 566 565 17 566 3 21 566 566 26 565 21 17 565 566 4 30 26 566 565 565 378 12 4
split_gain=8214.26 790.643 524.844 287.056 228.015 182.984 202.492 160.504 164.675 159.599 158.057 149.981 143.285 142.88 140.184 209.8 185.671 127.683 120.208 128.261 116.242 121.014 111.828 112.548 160.607 108.611 105.484 124.616 108.403
threshold=0.25303040525724624 0.39154865970154079 0.12091026175300544 5.7530804377119225 5.1535381046869295 5.2032594893051956 0.19035770035656871 0.61571569188722008 5.2921539287519446 0.22450116969567696 6.0640455730000022 6.4053331376009179 0.3870302549664284 0.14927925481428586 2.5000000000000004 0.55021861338277789 6.0554787904195839 5.1535381046590976 0.20039165542103782 0.0848472564117526 6.5778304137576367 5.6573110966301767 2.5000000000000004 0.051141515538344472 0.10259452603382564 0.32517147825225268 1.0000000180025095e-35 5.8979950174649973 6.2126305766009295
decision_type=2 2 2 2 2 2 2 2 2 2 2 2 2 2 2 2 2 2 2 2 2 2 2 2 2 2 2 2 2
left_child=2 3 22 13 9 6 20 8 -3 10 18 -8 -13 17 -10 16 -16 -2 19 -4 21 25 23 -1 -25 26 27 28 -5
right_child=1 7 4 5 -6 -7 11 -9 14 -11 -12 12 -14 -15 15 -17 -18 -19 -20 -21 -22 -23 -24 24 -26 -27 -28 -29 -30
leaf_value=-0.0099640178405424745 0.037393260452967543 0.045021189802810467 0.0056582505897060983 0.02807940048788557 -0.0054438816751902798 -0.013283825065164765 0.05734515865238346 0.051340811929015379 0.044783996154476813 0.10280495229221526 -0.0035871363654425732 -0.025385757058094711 0.10239825005884524 0.088733032084347907 0.026696989151994956 0.03342487322185831 -0.022479967488907279 0.0048845681755300512 0.024012586787082471 0.083119963882146056 -0.015210915987308211 -0.0032505770711386719 0.037695196602079609 0.011630099742368807 -0.012995961739177324 0.035190024895181186 -0.017089993271846252 0.10890874653249175 -0.0072160477497998409
leaf_count=53320 1570 3391 5147 604 9070 629 441 2961 999 42 3398 117 27 114 369 1450 400 374 1201 54 377 717 126 1471 1204 786 257 37 340
internal_value=0 0.651463 -0.13857 0.379081 0.00550267 0.232994 0.317699 0.833336 0.746653 0.110911 0.102575 0.857567 -0.0285251 0.686587 0.584615 0.444572 0.022346 0.62278 0.195097 0.12925 0.216409 0.288017 -0.187121 -0.189239 0.0109214 0.413077 0.228498 0.377903 0.307341
internal_count=90993 15960 75033 6390 18912 4332 3703 9570 6609 9842 9800 585 144 2058 3218 2219 769 1944 6402 5201 3118 2741 56121 55995 2675 2024 1238 981 944
shrinkage=0.05


Tree=32
num_leaves=30
num_cat=0
split_feature=565 565 30 566 7 4 566 21 11 18 566 25 10 5 566 49 565 21 21 565 10 4 565 27 19 389 21 566 20
split_gain=7413.37 720.908 486.097 274.333 272.411 246.285 209.031 189.997 183.448 128.911 127.599 134.173 146.137 217.871 119.93 116.408 108.489 133.126 103.994 96.4141 95.5532 94.4323 93.4485 93.2853 94.3689 95.9519 92.9603 143.674 95.2543
threshold=0.25303040525724624 0.35028600471013244 3.8625945453341317 0.096542793668643642 4.6310931939456887 5.8095992363874034 0.24482171358774135 4.861601600428286 5.9746772896729032 8.8297004845055377e-14 0.32272870446824814 5.0402864103051774 6.5732372494123261 5.8095992364341704 0.14090301338232183 3.5000000000000004 0.20473239213127972 5.292153928785015 4.23297579710104 0.46203069197010543 6.1585699357508625 7.0494801816267154 0.081705944281258769 1.5000000000000002 4.1141106473408451 1.0000000180025095e-35 6.5356359118111511 0.3870302549664284 6.1231758941000018
decision_type=2 2 2 2 2 2 2 2 2 2 2 2 2 2 2 2 2 2 2 2 2 2 2 2 2 2 2 2 2
left_child=2 5 3 22 9 18 8 15 21 -4 11 12 13 14 20 -5 -6 23 -2 -10 -7 -3 -1 24 25 -18 -8 28 -28
right_child=1 6 4 7 16 10 26 -9 19 -11 -12 -13 -14 -15 -16 -17 17 -19 -20 -21 -22 -23 -24 -25 -26 -27 27 -29 -30
leaf_value=-0.01142250225375495 0.054801880392161287 0.036983047693172781 0.0089221216878417661 0.044922097246171966 -0.0063364934263454332 0.017267666215929678 0.057444770712134108 -0.0049623720200136093 -0.0045725186003579034 0.032743640714103267 0.051202986280123403 -0.0062413683065151906 -0.039138206021975624 0.083140877273774921 0.071540437002734436 0.0007424065064936177 0.043580717874177992 -0.0094080398997215386 0.023839740201576309 0.025098972118861931 -0.018076187253944456 -0.06680302023887634 -0.0073740553649415692 -0.0084141409871253108 0.00070975361726222899 -0.012364286385225447 0.028564051712395525 0.047846854829514354 -0.026052585399399204
leaf_count=22479 330 5814 3667 497 5935 793 1421 706 405 672 150 1533 113 124 82 213 552 730 1522 845 252 22 38956 264 273 89 474 1984 96
internal_value=0 0.61889 -0.131642 -0.167077 0.0511817 0.29954 0.760333 0.268093 0.657371 0.252229 0.124737 0.078172 0.306323 0.404698 0.266271 0.633364 -0.0600444 0.147387 0.587135 0.309708 0.174891 0.731836 -0.177108 0.355324 0.506562 0.71626 0.943877 0.829808 0.387309
internal_count=90993 15960 75033 62851 12182 4899 11061 1416 7086 4339 3047 2897 1364 1251 1127 710 7843 1908 1852 1250 1045 5836 61435 1178 914 641 3975 2554 570
shrinkage=0.05


Tree=33
num_leaves=30
num_cat=0
split_feature=565 565 565 5 17 566 24 27 566 14 21 566 565 23 28 511 14 566 565 566 565 4 566 49 566 511 10 5 26
split_gain=6698.73 695.111 364.094 292.951 226.643 208.212 184.762 181.77 163.512 167.497 144.278 225.946 143.237 160.83 140.115 129.711 128.126 120.905 117.05 114.011 109.166 111.138 115.94 106.519 101.645 100.049 96.0713 114.05 91.2993
threshold=0.29832433259126295 0.16380542808571505 0.49305848184826112 4.3354769976574641 4.3423362801586824 0.15334894076540559 5.2921539287915929 5.5000000000000009 0.33816707117600125 4.9748429458008543 6.5011093815151897 0.16972127614948315 0.20473239213127972 1.7465150813202113 1.5000000000000002 5.6918390527267944 5.1535381046869295 0.10354726872210607 0.088428579894082385 0.051842640908460254 0.35028600471013244 6.0879531389057862 0.19035770035656871 3.5000000000000004 0.50346061853563173 6.3326754571290769 6.5732372494123261 6.2920545270995047 2.5000000000000004
decision_type=2 2 2 2 2 2 2 2 2 2 2 2 2 2 2 2 2 2 2 2 2 2 2 2 2 2 2 2 2
left_child=1 5 4 25 20 14 8 10 9 12 11 -6 -5 17 18 -15 -9 -14 19 -1 21 -2 -23 -19 -12 -3 -13 -28 -4
right_child=2 3 28 6 7 -7 -8 16 -10 -11 24 26 13 15 -16 -17 -18 23 -20 -21 -22 22 -24 -25 -26 -27 27 -29 -30
leaf_value=-0.010644283836069839 0.038089445706256136 0.028414130019598624 0.052599695306243782 0.0010812377706170082 0.016146106482623889 0.049898565043309695 -0.016484073909421231 0.0059722526228591193 0.090215649242912033 -0.0053559824500059219 -0.022681250191620879 0.064456891821092363 0.028248095557476861 0.013898795144740501 0.04101046204161482 -0.026489200711794642 -0.090546012463477946 0.11406205187483531 -0.0059898328313421649 0.014055296361446382 0.044129529931784359 -0.0057360793369403791 0.045323017151340059 0.0052606253854690062 0.05958691405695539 -0.059631923834482826 0.00157893399707973 0.085615494847297677 0.038029233841145454
leaf_count=28464 668 1449 1353 2800 2922 157 1122 73 56 2895 296 391 661 2155 147 219 65 82 36843 475 1578 414 152 31 43 33 160 54 5235
internal_value=0 -0.112774 0.652792 0.114095 0.49076 -0.152263 0.0527248 0.337945 0.100939 0.0901523 0.3782 0.438091 0.186168 0.332522 -0.155002 0.203461 -0.789785 0.728376 -0.157182 -0.204777 0.708354 0.485545 0.159518 1.68428 -0.244921 0.529072 0.994331 0.455688 0.820432
internal_count=90993 77589 13404 11503 6816 66086 10021 4004 8899 8843 3866 3527 5948 3148 65929 2374 138 774 65782 28939 2812 1234 566 113 339 1482 605 214 6588
shrinkage=0.05


Tree=34
num_leaves=30
num_cat=0
split_feature=565 565 30 17 5 4 566 4 566 3 4 21 566 565 56 21 11 25 566 565 21 3 378 49 26 565 17 21 565
split_gain=6061.39 591.834 406.838 244.736 240.608 239.486 232.497 175.08 173.192 189.027 169.956 135.389 173.798 133.467 132.069 131.657 117.298 114.853 112.574 109.374 123.342 111.105 109.077 101.23 99.6287 93.596 275.801 111.221 96.866
threshold=0.25303040525724624 0.39829204328645951 3.8625945453341317 5.1271010813264928 4.4384876178382102 5.483172026065227 0.096542793668643642 4.3222322552925503 0.19035770035656871 6.0640455730000022 6.4053331376178519 6.0450879230915477 0.25565796911152977 0.63396388183515762 1.0000000180025095e-35 6.4053331376009179 5.9318125669360997 4.1541589740016889 0.21531319346252967 0.19860255344645397 5.4583190430606701 6.0640455730000022 1.5000000000000002 3.5000000000000004 2.5000000000000004 0.5717800793204989 5.292153928800249 6.0554787904195839 0.53267485069230092
decision_type=2 2 2 2 2 2 2 2 2 2 2 2 2 2 2 2 2 2 2 2 2 2 2 2 2 2 2 2 2
left_child=2 3 6 5 7 -2 -1 -4 9 14 18 12 -5 24 16 -10 -7 -9 23 -6 21 22 -21 -8 -3 26 -26 -28 -29
right_child=1 13 4 11 19 8 10 17 15 -11 -12 -13 -14 -15 -16 -17 -18 -19 -20 20 -22 -23 -24 -25 25 -27 27 28 -30
leaf_value=-0.0080343087621611072 0.047309124798020318 0.040316849418499473 0.0010997969410491231 0.00057156699134205036 -0.0054712175876211085 0.029897279678856137 0.032811909344819215 0.034328425967995124 0.054455416627339465 0.00034395874154271813 -0.008429945687693988 -0.032695252877218944 0.096484393239021304 0.048419653354915861 -0.0065810729268729511 -5.8354200987980291e-05 -0.026468334185708431 0.0089412797152516668 0.08950290020668146 0.030439525500835979 -0.011197354995089469 0.00035395324918469437 -0.023418872015816827 -0.0073986195096182169 0.036800223337124537 0.035614267956074343 0.023509690121722382 -0.03345487455226781 0.0060622903277116899
leaf_count=61435 749 2974 1495 853 6271 1905 555 1106 469 1692 577 304 50 1773 339 145 97 746 66 898 695 866 105 218 1274 2334 370 273 359
internal_value=0 0.559618 -0.119034 0.330383 0.0482215 0.421436 -0.151452 0.276556 0.336858 0.261532 0.249164 -0.0766792 0.117647 0.721384 0.445587 0.831633 0.543326 0.482046 0.53647 -0.0382794 0.135726 0.269473 0.496026 0.429436 0.663637 0.571579 0.427287 0.0347658 -0.220152
internal_count=90993 15960 75033 6603 12182 5396 62851 3347 4647 4033 1416 1207 903 9357 2341 614 2002 1852 839 8835 2564 1869 1003 773 7584 4610 2276 1002 632
shrinkage=0.05


Tree=35
num_leaves=30
num_cat=0
split_feature=565 565 4 566 4 566 26 566 3 566 22 24 565 17 566 21 21 25 565 4 17 27 539 4 565 21 25 565 566
split_gain=5495.8 708.599 277.935 229.761 208.2 189.187 150.99 147.656 175.879 145.951 132.383 119.975 116.802 114.534 112.889 145.391 105.821 105.027 100.883 130.544 100.663 99.9794 98.7241 92.4484 88.7014 108.166 87.1547 87.9882 86.8155
